tree
version=v4
num_class=1
num_tree_per_iteration=1
label_index=0
max_feature_idx=77
objective=binary sigmoid:1
feature_names=merchant_vertical merchant_mcc merchant_country archetype processor_name routing_reason amount amount_usd currency card_brand card_type card_country is_cross_border card_funding_source is_token token_type present_mode response_code response_message decline_bucket is_soft_decline scheme_response_code three_ds_requested three_ds_outcome three_ds_version three_ds_flow three_ds_eci sca_exemption latency_ms latency_auth_ms latency_3ds_ms latency_bucket processor_fee_bps interchange_estimate_bps scheme_fee_bps fx_applied fx_rate settlement_currency risk_score fraud_flag risk_model_version billing_country shipping_country ip_country issuer_country entry_mode pan_entry_mode cardholder_verification_method cvv_result avs_result avs_zip_match avs_street_match wallet_type network_token_present payment_method_details issuer_bank_country card_product_type card_category card_commercial_type user_agent_family payment_method timeout_flag device_os issuer_size account_updater_used mastercard_advice_code routing_optimized mcc_routing_optimized smart_routed scheme_ms transaction_type fx_bps routed_network risk_skip_flag event_hour event_dayofweek event_month is_weekend
feature_infos=-1:1:4:3:2:5:0 [4511:7995] -1:29:8:3:12:16:11:18:0:2:19:4:10:21:27:6:17:25:1:26:28:13:30:20:7:14:5:24:15:23:9 -1:1:0:2:4:3 -1:3:2:0:4:1:5:10:9:6:8:7 none [0.77000000000000002:75318777] [0.77000000000000002:7783.21] -1:9:24:3:10:13:14:0:2:15:4:22:6:20:1:21:23:11:25:16:7:12:5:19:18:8 -1:5:3:0:4:1 -1:0:1:2 -1:29:8:3:12:16:11:6:2:0:18:19:10:21:27:4:17:26:1:13:20:28:7:5:14:24:22:25:30:15:9:23 [0:1] -1:0:1:2 [0:1] -1:0:2:3:1 -1:0:1:2 -1:1:6:7:8:10:3:12:11:9:17:13:15:0:5:14:4:2 -1:0:4:3:17:12:5:6:1:2:13:8:14:9:15:16:7:10 -1:1:0:2:3:4 [0:1] -1:1:6:7:8:10:3:12:11:9:17:13:15:0:5:14:4:2 [0:1] -1:0:2:1:3 [1:2.2000000000000002] -1:0:2:1 [2:7] -1:1:3:0:2:5 [50:37650] [50:37650] [0:1499] -1:1:0:2:3 [30:224.5] [5:344] [13:80] [0:1] [0.90011500713749903:1.2987131854330132] -1:9:24:3:10:13:14:0:2:15:4:6:22:20:1:23:21:11:16:25:12:7:5:19:18:8 [0:999] none none -1:29:8:3:12:16:11:6:2:0:18:19:10:21:27:4:17:26:1:13:20:28:7:5:14:24:22:25:30:15:9:23 -1:30:8:3:12:16:11:18:0:2:20:4:10:22:28:17:6:26:1:27:29:13:19:31:21:7:14:5:25:15:24:9 -1:29:8:3:12:16:11:6:2:0:18:19:21:10:27:4:17:1:26:20:28:13:7:14:5:25:22:24:30:15:9:23 -1:29:8:3:12:16:11:6:2:0:18:19:10:21:27:4:17:26:1:13:20:28:7:5:14:24:22:25:30:15:9:23 -1:2:1 -1:2:1 -1:2:0 -1:0:2:1 -1:1:4:3:0:5:2 [0:1] [0:1] none [0:1] none -1:29:8:3:12:16:11:6:2:0:18:19:10:21:27:4:17:26:1:13:20:28:7:5:14:24:22:25:30:15:9:23 -1:0:1:2 none -1:1:0 -1:0:1 none [0:1] -1:0:2:1:3 -1:0:1 [0:1] [1:4] [0:1] [0:1] [0:1] [20:249] none [0:299.60000000000002] -1:2:6:1:0:4:5 [0:1] [0:23] [0:6] [2:6] [0:1]
tree_sizes=3274 3366 3373 3348 3365 3393 3339 3348 3368 3353 3367 3389 3389 3392 3379 3387 3374 3377 3375 3378 3392 3392 3385 3381 3361 3364 3403 3382 3377 3397 3396 3316 3372 3384 3392 3364 3407 3373 3384 3378 3365 3381 3381 3424 3408 3417 3386 3401 3407 3404 3394 3415 3404 3393 3385 3404 3402 3395 3375 3380 3435 3421 3389 3428 3393 3399

Tree=0
num_leaves=31
num_cat=7
split_feature=20 73 4 0 17 69 26 33 32 41 33 6 41 33 69 17 74 30 33 30 32 69 33 28 33 10 75 38 7 28
split_gain=271.676 228.734 139.502 108.837 48.8042 37.5319 35.3798 21.4836 21.6865 20.0485 19.92 20.4435 14.9638 14.0957 13.2669 12.8665 10.7288 10.3503 9.98637 9.84737 9.35358 10.5436 9.1322 14.2943 9.07275 17.1792 9.21173 8.79461 8.48982 8.39196
threshold=1.0000000180025095e-35 1.0000000180025095e-35 0 1 2 82.500000000000014 6.5000000000000009 25.750000000000004 113.05000000000001 3 15.350000000000003 594.54000000000008 4 35.550000000000004 122.50000000000001 5 7.5000000000000009 468.50000000000006 180.55000000000004 437.50000000000006 76.550000000000011 52.500000000000007 42.050000000000004 1170.5000000000002 166.25000000000003 6 1.5000000000000002 440.50000000000006 23.875000000000004 1455.5000000000002
decision_type=2 2 1 1 9 2 8 2 2 1 2 2 1 2 2 9 2 2 2 2 2 2 2 2 2 1 2 2 2 2
left_child=-1 2 4 6 7 10 -4 -2 13 22 -5 -12 16 19 24 27 -6 -18 28 -9 21 -13 -7 -24 25 -15 -26 -11 -8 -22
right_child=1 -3 3 5 12 9 18 8 -10 15 11 20 -14 14 -16 -17 17 -19 -20 -21 29 -23 23 -25 26 -27 -28 -29 -30 -31
leaf_value=-1.8098678967671651 -1.7848752296123225 -1.8096356219849343 -1.7102476269320177 -1.7699219390655547 -1.7122749772285244 -1.8036638356723997 -1.7534117522016708 -1.7099717656652629 -1.7713638113669261 -1.6043619727422354 -1.6632719782984224 -1.6520755544910388 -1.7863805431436142 -1.7569953021491813 -1.7474457894227493 -1.7363360619897588 -1.7734886565235439 -1.7297938713758221 -1.7363094076706589 -1.6181206531094019 -1.7315487302115256 -1.7155812324455715 -1.7696100603484093 -1.6790706570197569 -1.6260677125850518 -1.6820934495116664 -1.7074637065140672 -1.6832657349590026 -1.797609624241979 -1.6725995675271348
leaf_weight=161.52086538076401 15.118957757949827 97.895251482725143 27.592097908258438 5.4176265299320212 11.33921831846237 7.9374528229236629 14.992966443300245 8.0634441375732404 18.520723253488541 10.4572791159153 121.2036446928978 16.126888275146488 83.15426766872406 17.008827477693558 30.99386340379715 39.687264114618301 53.672300040721893 17.13481879234314 11.96917489171028 5.2916352152824393 28.978002369403839 13.355079352855681 13.985035926103594 5.1656439006328574 5.2916352152824429 12.725122779607775 12.221157521009443 9.7013312280178052 39.309290170669556 7.055513620376586
leaf_count=1282 120 777 219 43 90 63 119 64 147 83 962 128 660 135 246 315 426 136 95 42 230 106 111 41 42 101 97 77 312 56
internal_value=-1.75118 -1.73866 -1.72812 -1.70853 -1.7547 -1.69286 -1.75639 -1.73209 -1.72286 -1.71858 -1.67841 -1.67567 -1.77197 -1.71294 -1.72178 -1.70655 -1.75499 -1.76276 -1.77665 -1.66682 -1.6996 -1.67872 -1.75915 -1.7428 -1.70538 -1.72372 -1.67742 -1.67398 -1.78566 -1.71819
internal_weight=922.886 761.366 663.47 372.934 290.536 279.071 93.8635 125.235 110.116 86.934 192.137 186.719 165.301 91.5957 78.2406 59.8459 82.1463 70.8071 66.2714 13.3551 65.5155 29.482 27.0881 19.1507 47.2467 29.734 17.5128 20.1586 54.3023 36.0335
internal_count=7325 6043 5266 2960 2306 2215 745 994 874 690 1525 1482 1312 727 621 475 652 562 526 106 520 234 215 152 375 236 139 160 431 286
cat_boundaries=0 1 2 3 4 5 6 7
cat_threshold=1731 17 184384 1620033568 171111800 64 1
is_linear=0
shrinkage=1


Tree=1
num_leaves=31
num_cat=8
split_feature=17 73 0 17 30 3 20 3 11 34 28 29 28 33 38 38 38 69 25 74 33 34 69 11 6 6 6 34 69 34
split_gain=249.951 202.644 98.213 81.377 49.6062 48.0077 29.9316 28.1488 27.6664 24.1851 21.9909 15.3114 15.0726 13.0886 10.1745 9.49608 9.43584 9.26802 9.19267 8.7847 8.73811 8.2372 8.17777 7.94029 10.1865 7.73751 9.71362 8.56682 7.39318 7.26788
threshold=0 1.0000000180025095e-35 1 2 304.50000000000006 3 1.0000000180025095e-35 4 5 24.850000000000005 612.50000000000011 849.50000000000011 697.50000000000011 141.05000000000004 823.50000000000011 282.50000000000006 690.50000000000011 77.500000000000014 6 19.500000000000004 26.750000000000004 28.150000000000002 81.500000000000014 7 2641.5800000000004 57.995000000000012 833.7700000000001 58.050000000000004 57.500000000000007 19.950000000000003
decision_type=9 2 1 9 2 1 2 1 1 2 2 2 2 2 2 2 2 2 1 2 2 2 2 1 2 2 2 2 2 2
left_child=1 2 4 7 13 9 -2 10 18 11 15 12 -5 -1 -12 -4 -17 20 -7 -19 -6 -20 -10 -11 -25 -9 27 -27 -8 -14
right_child=6 -3 3 5 17 8 28 25 22 23 14 -13 29 -15 -16 16 -18 19 21 -21 -22 -23 -24 24 -26 26 -28 -29 -30 -31
leaf_value=-0.038911570745337964 -0.057803036470703818 -0.057483329325708148 0.030679979864906993 0.092469444799182635 0.0039703557520879918 0.051285669646250781 -0.0025705873416602826 -0.026578671876764555 -0.0047620407760316759 -0.0095350721799888315 0.11376096650118027 0.11821687201452687 -0.0064561863617120857 -0.0051808029454796919 0.045761840362275041 0.092494365865050943 0.039200700417868758 -0.012576481956499651 0.045749462045474601 0.057868443735411015 0.065046086398731717 -0.004221907522010143 -0.034544637803715424 0.051529434215221187 -0.013452219069477276 0.072789360271265716 0.0010373438329876999 -0.0016415472274118729 -0.032028188475096399 0.057861883427906262
leaf_weight=68.462247267365456 151.81336772441864 81.843003444373608 19.127464570105076 12.232614785432817 7.8991761133074787 24.015944503247738 33.777933746576309 7.0201748088002196 51.838067412376404 14.240508072078226 57.414562545716763 14.253627203404902 10.512066975235941 49.674265615642071 8.1370294094085676 28.074896812438965 14.856839321553705 15.409123539924623 11.028047159314154 5.0764355435967436 23.256187029182911 25.767014153301716 41.053420387208462 33.431297287344933 6.8734669536352149 13.111170649528505 17.510254621505737 5.2648951932787886 57.533953815698624 6.3348645716905585
leaf_count=553 1256 677 146 92 62 186 264 55 406 110 435 107 79 396 62 215 114 121 86 40 180 204 330 257 53 102 137 41 458 48
internal_value=-0.000142942 0.0155772 0.0260225 0.0384097 -0.006677 0.018358 -0.0424878 0.0650885 9.64836e-05 0.0441279 0.0792997 0.0761717 0.0523179 -0.0248909 0.106135 0.0622966 0.0753638 0.0334031 0.0239549 0.00676104 0.0501659 0.0115695 -0.016405 0.0257023 0.0325176 0.0152652 0.0280879 0.0524802 -0.0212772 0.019616
internal_weight=916.844 673.719 591.876 422.098 169.777 251.581 243.125 170.517 153.702 97.8784 127.611 43.3332 29.0795 118.137 65.5516 62.0592 42.9317 51.6409 60.811 20.4856 31.1554 36.7951 92.8915 54.5453 40.3048 42.9065 35.8863 18.3761 91.3119 16.8469
internal_count=7272 5294 4617 3265 1352 1958 1978 1307 1212 746 972 326 219 949 497 475 329 403 476 161 242 290 736 420 310 335 280 143 722 127
cat_boundaries=0 1 2 3 4 5 6 7 8
cat_threshold=184386 17 20544 4 22 410162512 4 402834053
is_linear=0
shrinkage=0.05


Tree=2
num_leaves=31
num_cat=7
split_feature=17 73 3 33 17 17 29 20 41 34 33 30 69 30 33 41 38 33 33 6 33 38 34 74 43 7 6 28 29 75
split_gain=237.247 187.652 102.577 69.0021 42.6304 31.0781 26.2156 24.9838 20.2801 18.9266 15.7134 13.4254 16.2959 12.0306 10.6036 11.3646 10.252 12.076 11.4825 10.0002 9.18341 9.1666 9.14984 8.95537 8.91594 8.00037 7.53812 8.88957 8.50836 7.47541
threshold=0 1.0000000180025095e-35 1 14.450000000000001 2 3 830.50000000000011 1.0000000180025095e-35 4 41.150000000000013 15.350000000000003 585.50000000000011 62.500000000000007 482.50000000000006 40.750000000000007 5 424.50000000000006 139.55000000000004 54.800000000000004 1129.5200000000002 31.050000000000004 447.50000000000006 19.950000000000003 7.5000000000000009 6 17.895000000000003 224.28500000000003 428.50000000000006 311.50000000000006 4.5000000000000009
decision_type=9 2 1 2 9 9 2 2 1 2 2 2 2 2 2 1 2 2 2 2 2 2 2 2 1 2 2 2 2 2
left_child=1 2 3 -1 10 6 8 -2 -5 -8 -4 12 19 24 20 -16 17 18 -14 25 -12 -21 -10 -9 -6 -7 28 -28 -17 -29
right_child=7 -3 4 5 13 11 9 23 22 -11 14 -13 16 -15 15 26 -18 -19 -20 21 -22 -23 -24 -25 -26 -27 27 29 -30 -31
leaf_value=-0.054984442187396003 -0.057339763011701843 -0.057022332304192659 -0.05006734207330174 -0.013398336734199618 -0.0046305066824181796 0.038229981057300404 0.081375508017512962 0.023446302042174384 0.010395020082828445 0.0053441891186712448 0.034585715617971684 0.10780433902528373 0.066802877771883581 0.0095537349543327686 -0.0073873281105375117 0.052394001238276477 0.021663493597525861 0.10150753396272616 -0.021129336832240816 0.002703812104341858 0.10519032252205832 0.079359037941460792 0.040350073285875213 -0.028032036331609524 -0.036304115652785525 0.10883275473865786 0.01429470981392765 0.081606430350914805 -0.015792781656884913 0.020070871172609583
leaf_weight=16.468725882470608 149.17094546556473 80.052735023200512 6.1621894612908354 32.840978600084782 51.074248485267162 6.2448300793766967 34.798853293061256 8.8578043580055219 37.756976619362831 10.802174486219881 18.803738139569763 23.747215270996094 7.7642115056514758 29.092560797929764 31.549110844731331 5.7984664142131832 28.684977956116199 11.764370337128637 5.785163439810276 7.1926171183586103 6.038739785552024 7.7124805226922035 83.47082431614399 68.081219859421253 65.666725136339664 30.744446225464344 15.491207972168921 16.801268264651302 13.075243592262266 7.9524430260062209
leaf_count=135 1287 690 51 255 412 46 252 71 282 84 143 168 57 228 243 44 215 86 44 54 45 58 638 547 535 222 120 127 101 61
internal_value=-0.000253193 0.0143157 0.0239382 0.0412964 -0.000103441 0.0475136 0.0294305 -0.0435078 0.02079 0.063866 0.0207613 0.0675062 0.0638604 -0.0177466 0.026719 0.0184111 0.0432895 0.0660411 0.0303868 0.0840424 0.0551547 0.0448639 0.0288236 -0.0218807 -0.0260806 0.0982331 0.028552 0.0452933 0.00673813 0.0633843
internal_weight=919.447 693.338 613.285 345.779 267.506 329.31 199.67 226.11 154.069 45.601 121.672 129.64 105.893 145.834 115.51 90.6677 53.9987 25.3137 13.5494 51.8944 24.8425 14.9051 121.228 76.939 116.741 36.9893 59.1186 40.2449 18.8737 24.7537
internal_count=7301 5396 4706 2596 2110 2461 1511 1905 1175 336 935 950 782 1175 884 696 402 187 101 380 188 112 920 618 947 268 453 308 145 188
cat_boundaries=0 1 2 3 4 5 6 7
cat_threshold=186434 6 20544 165890 1427152993 136451900 978379857
is_linear=0
shrinkage=0.05


Tree=3
num_leaves=31
num_cat=10
split_feature=20 73 17 4 0 11 30 43 42 42 69 30 6 10 7 69 63 30 0 6 32 29 29 28 7 1 29 32 32 69
split_gain=234.459 183.363 98.6553 85.8982 50.315 23.4995 20.1296 18.5779 17.7534 16.4752 11.0844 9.43586 11.8382 8.79189 9.61625 10.0495 9.85793 10.0811 8.41092 8.36177 8.24568 7.77354 10.7687 8.56472 8.37722 7.34933 7.59041 7.12433 7.00281 6.99038
threshold=1.0000000180025095e-35 1.0000000180025095e-35 0 1 2 3 458.50000000000006 4 5 6 81.500000000000014 851.50000000000011 42.845000000000006 7 415.76000000000005 26.500000000000004 8 427.50000000000006 9 1101.2400000000002 50.250000000000007 265.50000000000006 397.50000000000006 574.50000000000011 22.580000000000002 5525.0000000000009 665.50000000000011 40.95000000000001 98.550000000000011 61.500000000000007
decision_type=2 2 9 1 1 1 2 1 9 9 2 2 2 1 2 2 1 2 1 2 2 2 2 2 2 2 2 2 2 2
left_child=-1 2 4 7 6 9 -2 -4 20 -5 25 12 21 -9 15 -15 17 -17 -11 27 -6 -10 -23 -24 -25 26 -7 -14 -21 -13
right_child=1 -3 3 5 8 10 -8 13 11 18 -12 29 19 14 -16 16 -18 -19 -20 28 -22 22 23 24 -26 -27 -28 -29 -30 -31
leaf_value=-0.056893006724810284 -0.019514754411629129 -0.056676705602398882 -0.0014046743103397574 -0.019222845825836398 0.056270786220040017 -0.0045326947726225782 0.05874009962974535 0.029764036976424879 -0.0016433026259667029 -0.010990169618717221 -0.035462902475421422 0.058027107766388697 0.027029104037419927 0.010049732649024125 0.0089775590678024264 0.036029670480390213 0.11344838047737914 0.090074843427037796 0.026458120451377944 0.059911371046329875 -0.0051560494600257781 0.089486246868589345 -0.022018750895013154 0.071938187604740397 0.00027298165296617217 -0.020912966655060171 0.048117764040641824 0.082104807651364575 0.011565362711206145 0.12107230989536236
leaf_weight=141.98270939290524 41.408949673175812 83.798466131091118 29.569475784897804 30.816352322697639 5.9612533971667316 35.046647280454636 9.1977014616131765 27.009547531604767 10.337956972420214 16.246511496603489 76.249476708471775 11.262107849121096 7.7098905742168418 6.2684474959969512 7.1264984086155883 20.971307501196861 15.47689515352249 17.051507078111172 69.769558757543564 26.608964711427689 24.761418335139751 9.7708186581730825 5.9774285256862667 9.70784540474415 6.5981296673417082 65.33861643075943 7.4670632630586615 75.918452031910419 11.048091568052767 13.340426273643969
leaf_count=1278 332 750 223 248 43 275 67 198 76 132 630 76 55 45 52 152 111 123 544 193 181 71 46 72 47 519 57 537 81 91
internal_value=0.00196128 0.0127638 0.0212178 0.00542138 0.0441405 -0.00913354 -0.00371041 0.0387405 0.0548464 0.00808666 -0.0199014 0.0620029 0.0601671 0.0502035 0.0652906 0.0717469 0.0786588 0.0619536 0.0189409 0.0682357 0.00620497 0.0360422 0.0478784 0.0265744 0.0446307 -0.0105033 0.00560806 0.0774066 0.0463934 0.0956063
internal_weight=919.799 777.816 694.017 424.408 269.609 300.934 50.6067 123.474 219.003 116.832 184.102 188.28 163.678 93.9042 66.8947 59.7682 53.4997 38.0228 86.0161 121.285 30.7227 42.3922 32.0542 22.2834 16.306 107.852 42.5137 83.6283 37.6571 24.6025
internal_count=7305 6027 5277 3309 1968 2405 399 904 1569 924 1481 1345 1178 681 483 431 386 275 676 866 224 312 236 165 119 851 332 592 274 167
cat_boundaries=0 1 2 3 4 5 6 7 8 9 10
cat_threshold=20544 48 16 403895384 494985928 610304550 1146620224 2 1 16
is_linear=0
shrinkage=0.05


Tree=4
num_leaves=31
num_cat=8
split_feature=17 73 33 17 69 28 34 48 11 28 11 11 6 10 6 1 69 38 34 29 38 76 33 34 33 32 69 24 32 19
split_gain=203.817 165.335 71.2698 63.7264 37.7474 21.605 17.2124 15.1415 13.8146 13.0441 12.3987 11.0733 10.109 9.4319 9.64091 9.21342 9.0424 8.51702 8.36062 8.65285 8.57674 8.28949 8.25356 16.48 10.4176 8.00122 7.89929 7.80408 7.37821 7.23036
threshold=0 1.0000000180025095e-35 14.450000000000001 1 81.500000000000014 662.50000000000011 46.050000000000004 2 3 518.50000000000011 4 5 11.710000000000003 6 3170.2850000000003 6505.0000000000009 28.500000000000004 190.50000000000003 17.350000000000005 96.500000000000014 282.50000000000006 3.5000000000000004 158.65000000000001 17.350000000000005 31.650000000000002 70.350000000000009 54.500000000000007 1.5500000000000003 112.75000000000001 7
decision_type=9 2 2 9 2 2 2 1 1 2 1 1 2 1 2 2 2 2 2 2 2 2 2 2 2 2 2 10 2 1
left_child=1 2 -1 6 5 7 9 11 21 18 17 -5 -12 -7 22 16 -13 -6 20 -20 -4 -8 24 -24 -15 -19 -22 28 -27 -2
right_child=29 -3 3 4 10 13 8 -9 -10 -11 12 15 -14 14 -16 -17 -18 25 19 -21 26 -23 23 -25 -26 27 -28 -29 -30 -31
leaf_value=-0.054398790322189 -0.018525714180369676 -0.056193597463285741 0.01689617271505639 -0.024167437652676801 0.056059454089223526 0.084436090956056031 0.024188744407239893 0.050764361793471595 -0.0016392966590692915 0.064864595990856908 0.038487713717874968 -0.035218171369776223 -0.028104358294616244 0.040154201340799618 -0.0042638927540953088 -0.035574568646231715 0.028542568735608776 -0.030866710240627673 -0.024959397589622182 0.033321912411618991 0.12087314609906992 0.068594207401538321 0.010008733370706534 0.097740892988821271 0.0008336078366912446 0.022965766489127844 0.034125107914137295 0.057502300296034176 -0.042873511857670125 -0.052707050175340532
leaf_weight=29.353072829544544 62.925019785761833 77.808001801371574 6.94602903723717 29.319558165967468 7.7765025943517676 8.4118212834000587 21.599109433591366 13.622352488338946 39.700849339365959 99.439742811024189 5.2641761824488631 5.5758441537618628 81.927548579871655 56.904016397893429 16.398002475500107 7.9303375557065001 39.508534103631973 11.90357907861471 6.4749843180179587 53.656362183392048 7.0322414934635145 23.085905484855175 9.0759685188531893 12.989770382642744 23.816372558474541 10.150465495884424 5.4815874546766281 7.215191848576068 5.8841937184333792 138.59393101930618
leaf_count=249 517 729 51 232 61 61 154 104 289 672 42 42 672 408 124 62 301 95 48 386 48 163 64 93 173 82 40 55 47 1302
internal_value=-0.000426581 0.0120487 0.0205227 0.0241688 0.00917758 0.0218627 0.0422411 0.00386574 0.0247779 0.0526353 -0.0119164 -0.00440977 -0.0212801 0.0352617 0.0311174 0.00948119 0.0200638 0.00977262 0.0367411 0.0267405 0.0648257 0.0394863 0.0367486 0.0636537 0.0287049 0.000968949 0.0882109 0.0178691 -0.00229359 -0.0435451
internal_weight=925.771 724.252 646.444 617.091 353.674 223.553 263.417 95.9566 84.3859 179.031 130.122 82.3343 87.1917 127.596 119.184 53.0147 45.0844 42.9299 79.5912 60.1313 19.4599 44.685 102.786 22.0657 80.7204 35.1534 12.5138 23.2499 16.0347 201.519
internal_count=7366 5547 4818 4569 2718 1664 1851 741 606 1245 1054 637 714 923 862 405 343 340 573 434 139 317 738 157 581 279 88 184 129 1819
cat_boundaries=0 1 2 3 4 5 6 7 8
cat_threshold=194626 20544 1 1550871251 137647188 1074335943 4 10
is_linear=0
shrinkage=0.05


Tree=5
num_leaves=31
num_cat=8
split_feature=17 73 33 4 17 17 20 29 11 34 11 30 30 2 32 4 34 34 7 69 29 14 32 32 14 74 34 50 6 26
split_gain=189.142 145.04 66.6922 63.5291 28.0797 26.0525 20.1305 18.8408 17.6555 16.1735 15.8054 13.7603 13.4924 10.4607 11.8429 9.71083 9.6568 9.55214 9.63723 9.49747 9.38891 11.5093 8.98427 8.29235 8.14167 7.91471 7.34937 7.27425 7.18015 10.0701
threshold=0 1.0000000180025095e-35 14.450000000000001 1 2 3 1.0000000180025095e-35 820.00000000000011 4 41.150000000000013 5 456.50000000000006 585.50000000000011 6 113.05000000000001 7 59.850000000000001 20.150000000000002 54.245000000000012 87.500000000000014 1637.5000000000002 1.0000000180025095e-35 45.750000000000007 97.750000000000014 1.0000000180025095e-35 7.5000000000000009 69.250000000000014 1.0000000180025095e-35 355.90000000000003 3.5000000000000004
decision_type=9 2 2 1 9 9 2 2 1 2 1 2 2 9 2 1 2 2 2 2 2 2 2 2 2 2 2 2 2 10
left_child=1 2 -1 4 13 12 -2 8 17 20 11 25 16 14 27 -10 28 -7 -19 22 21 -9 -17 -24 -15 -6 -18 -4 29 -5
right_child=6 -3 3 5 10 7 -8 9 15 -11 -12 -13 -14 24 -16 19 26 18 -20 -21 -22 -23 23 -25 -26 -27 -28 -29 -30 -31
leaf_value=-0.055538606380174708 -0.056118250410860306 -0.0557585413678846 0.054732466580155625 0.077575488903928902 0.041174167783214727 -0.0046349801126544026 -0.023090364044527689 0.10577758069201303 0.021843148100806911 -0.0031336716950116045 -0.027642111805201798 0.041695192934497735 0.086868526653297626 -0.011924587657962227 -0.010787356884084746 -0.040174774832540963 -0.014689588228200349 0.022198901288367864 0.072470490204898208 -0.035615638185417832 0.018599564059934952 0.038624654846121279 0.027066454008952141 -0.013504778740260268 0.030794490697954188 -0.018636708151146923 0.045500445075452561 0.014001815299299482 0.036344137701814175 0.026139888295490868
leaf_weight=28.242680430412292 134.15125036239624 72.704901441931725 41.961861848831177 42.898606017231941 5.5887200608849517 9.0889418274164182 73.319175854325294 15.767255991697311 26.313627071678638 11.668666362762449 74.111459769308567 18.357669971883297 29.120193183422089 38.778634183108807 11.44031088799238 9.7328484058380109 10.102288216352465 17.925275266170502 22.869980998337269 23.342319577932358 9.7090227603912336 13.141562208533287 29.033209316432476 20.87372687458992 14.499277494847773 34.434419870376587 8.5059317946434003 15.860974527895449 40.712268598377705 13.888780638575552
leaf_count=250 1312 712 291 284 44 65 610 102 188 90 623 137 179 283 84 72 71 128 167 188 63 89 213 155 104 281 59 110 279 90
internal_value=-0.00184866 0.0105329 0.0183279 0.0218348 0.00196069 0.0350388 -0.042571 0.0209415 0.0133451 0.0483421 -0.0134825 0.00602509 0.0524655 0.0183932 0.0305656 0.000285818 0.0476491 0.0345447 0.051441 -0.00830652 0.0635824 0.0775628 0.00142321 0.0101655 4.58718e-05 -0.00948479 0.013741 0.0439879 0.0539153 0.0656657
internal_weight=918.146 710.675 637.971 609.728 255.033 354.695 207.47 209.466 159.18 50.2865 132.492 58.3808 145.228 122.541 69.2631 109.296 116.108 49.8842 40.7953 82.9821 38.6178 28.9088 59.6398 49.9069 53.2779 40.0231 18.6082 57.8228 97.4997 56.7874
internal_count=7323 5401 4689 4439 1957 2482 1922 1520 1176 344 1085 462 962 872 485 816 783 360 295 628 254 191 440 368 387 325 130 401 653 374
cat_boundaries=0 1 2 3 4 5 6 7 8
cat_threshold=186434 1859 20544 20544 144727572 171095368 537667913 16
is_linear=0
shrinkage=0.05


Tree=6
num_leaves=31
num_cat=9
split_feature=20 73 4 0 17 22 43 37 33 44 74 34 34 33 6 34 33 6 25 33 6 47 7 44 6 33 34 29 6 7
split_gain=192.837 143.921 75.2798 46.8534 33.6036 25.5704 20.0544 18.4599 12.7204 11.9447 12.1139 11.6794 13.2722 13.8648 11.137 9.81066 10.4326 9.39732 9.27901 8.82808 12.6178 8.46111 8.43457 8.41961 8.19035 6.86565 6.71862 6.60142 13.2454 11.7357
threshold=1.0000000180025095e-35 1.0000000180025095e-35 0 1 2 1.0000000180025095e-35 3 4 150.85000000000005 5 7.5000000000000009 71.350000000000009 18.950000000000003 21.350000000000005 1953.8450000000003 33.150000000000013 132.25000000000003 6804.545000000001 6 143.85000000000005 510.49000000000007 7 16.73 8 1026.325 154.25000000000003 18.350000000000005 370.50000000000006 451.55500000000006 45.035000000000004
decision_type=2 2 1 1 9 2 1 9 2 1 2 2 2 2 2 2 2 2 1 2 2 9 2 1 2 2 2 2 2 2
left_child=-1 2 3 5 7 8 19 21 22 10 -6 12 26 -14 15 -15 -17 -16 -12 -5 -21 -4 -2 -9 -7 -19 27 29 -29 -8
right_child=1 -3 4 6 9 24 11 23 -10 -11 18 -13 13 14 17 16 -18 25 -20 20 -22 -23 -24 -25 -26 -27 -28 28 -30 -31
leaf_value=-0.055747806403731594 0.0047858919637591337 -0.055510068645478673 0.029499572108769852 -0.0060846298349412041 0.047456724290596622 0.019314607762963842 -0.03479049431956787 0.014968289482263969 0.008704336282178227 -0.029753244316280011 0.019662223007327742 -0.0011318843594723058 0.012766021501529418 0.07977709231370532 0.0080279907213537914 0.025109712976597528 0.072701055463361461 0.016923108786841612 -0.023014001403808045 0.075726296242487612 0.0029216447615822722 0.076494125102032878 -0.048562442854868257 -0.015242605559437905 0.078802982180191217 0.07888914771758837 -0.0064438293944587277 0.064872044336572246 -0.005861685908462211 0.037177765146673286
leaf_weight=129.03342187404633 9.369789242744444 74.795679569244385 35.74424285441637 37.607304379343987 9.8736643567681295 29.193594612181187 7.1856692507863071 31.039353258907795 24.151677750051022 90.222137793898582 17.51603727042675 11.867260716855524 16.858198270201683 78.530282773077488 17.345491886138916 25.267830088734627 23.018286041915417 7.5407689809799221 40.367946788668633 8.9726106375455874 14.967717491090296 13.554711505770682 31.598480314016342 40.4948785379529 6.597151316702365 13.018792629241942 10.111707150936125 29.788739748299122 8.2309319674968702 17.904875069856644
leaf_count=1318 75 758 251 265 76 206 51 223 185 779 135 87 120 516 122 176 160 54 334 64 108 89 269 295 46 90 68 192 56 122
internal_value=0.000643138 0.00999841 0.0169881 0.0297313 -0.00359543 -0.00118531 0.0389668 0.0154865 -0.0198806 -0.0182485 -0.000913524 0.0455624 0.0495143 0.0568308 0.0612363 0.0684609 0.0488116 0.0359271 -0.00998532 0.00781459 0.0321504 0.0364399 -0.0365379 -0.00188599 0.0321237 0.0580006 0.030849 0.0368315 0.049801 0.0160233
internal_weight=911.769 782.736 707.94 429.127 278.813 100.911 328.216 120.833 65.1199 157.98 67.7576 266.669 254.802 181.58 164.721 126.816 48.2861 37.9051 57.884 61.5476 23.9403 49.299 40.9683 71.5342 35.7907 20.5596 73.2219 63.1102 38.0197 25.0905
internal_count=7290 5972 5214 3032 2182 781 2251 858 529 1324 545 1814 1727 1238 1118 852 336 266 469 437 172 340 344 518 252 144 489 421 248 173
cat_boundaries=0 1 2 3 4 5 6 7 8 9
cat_threshold=380 17 20544 37800162 16830531 171103600 4 4 1714506308
is_linear=0
shrinkage=0.05


Tree=7
num_leaves=31
num_cat=9
split_feature=20 73 0 17 4 26 4 11 32 2 33 33 69 4 2 11 33 38 33 6 74 1 69 26 76 1 69 38 34 38
split_gain=178.201 130.526 63.2317 50.6391 41.4837 35.1968 19.3958 17.6651 16.2 15.4352 12.6226 9.95997 9.19501 7.78097 7.50106 7.48542 7.1677 6.87852 6.79411 8.32587 7.79449 6.64726 6.60529 7.58274 6.5783 6.41399 8.04782 8.87987 8.18468 6.67019
threshold=1.0000000180025095e-35 1.0000000180025095e-35 0 1 2 6.5000000000000009 3 4 113.05000000000001 5 146.25000000000003 18.350000000000005 69.500000000000014 6 7 8 27.150000000000002 395.50000000000006 138.75000000000003 33.095000000000006 11.500000000000002 5815.5000000000009 81.500000000000014 3.5000000000000004 2.5000000000000004 5892.0000000000009 69.500000000000014 204.50000000000003 18.850000000000005 702.50000000000011
decision_type=2 2 1 9 1 8 1 1 2 9 2 2 2 1 9 1 2 2 2 2 2 2 2 8 2 2 2 2 2 2
left_child=-1 2 5 6 7 24 16 12 15 -6 -7 -11 13 -5 17 21 -4 -14 19 -15 -21 -8 23 -9 -2 26 28 -28 -18 -27
right_child=1 -3 3 4 9 10 8 22 -10 11 -12 -13 14 18 -16 -17 25 -19 -20 20 -22 -23 -24 -25 -26 29 27 -29 -30 -31
leaf_value=-0.055392490606546857 -0.017742820989211729 -0.05513528167189851 0.028667688802439154 -0.0063095615429527773 -0.01390466978058807 -0.050159838297769876 0.015750353633133141 0.038104894583267622 -0.022534653768421391 -0.013304018114252542 -0.0097768114437579955 0.043678469483779125 0.06316912550605272 0.005214600903648281 -0.014465719414876791 0.035685029720534438 0.035022404230146277 0.00063476412720338314 0.011010280061709496 0.1208109823320877 0.045419309945818581 -0.033520774843313589 -0.032997110738880474 -0.014533854808328176 0.037201067152866633 0.090417557972239465 0.075937288941639494 0.01664168324189598 0.082772008097245997 0.03314663688194594
leaf_weight=122.47505252808332 6.2623485997319248 70.846473164856434 22.098051935434341 19.111331395804882 16.171358160674572 53.732856057584286 22.020031660795215 6.7937071919441214 17.943259470164776 7.8018880710005751 30.82561943680048 109.50899392366409 6.8423119410872486 6.049063220620158 39.906477957963943 63.97252195328474 16.41586085408926 10.057508297264574 12.605501830577849 5.4106373935937908 12.366056531667708 8.743495397269724 48.154678821563721 56.726679459214211 24.713672943413258 30.201706007122993 7.7494411244988433 25.850715629756451 27.821179665625095 7.9718188792467108
leaf_count=1307 45 750 141 143 115 475 153 52 130 58 246 739 53 44 324 430 100 79 95 39 90 63 425 450 177 180 49 168 169 49
internal_value=0.000494933 0.00916707 0.0155282 0.0217734 0.00898794 -0.0176143 0.0388559 -0.00433931 0.018471 0.0299826 -0.0357246 0.0367059 0.00927559 0.0243732 -0.00404779 0.0283212 0.0528977 0.0180077 0.0330607 0.0571306 0.073578 0.000861137 -0.0176399 -0.00840064 0.0258857 0.0617495 0.0520919 0.0321169 0.0662186 0.0796091
internal_weight=917.15 794.675 723.829 608.294 357.506 115.534 250.788 224.024 112.679 133.482 84.5585 117.311 112.349 55.5426 56.8063 94.736 138.109 16.8998 36.4313 23.8258 17.7767 30.7635 111.675 63.5204 30.976 116.011 77.8372 33.6002 44.237 38.1735
internal_count=7338 6031 5281 4338 2706 943 1632 1794 776 912 721 797 867 411 456 646 856 132 268 173 129 216 927 502 222 715 486 217 269 229
cat_boundaries=0 1 2 3 4 5 6 7 8 9
cat_threshold=16 151616 1551 60 441644376 134627456 1028 86028 36398496
is_linear=0
shrinkage=0.05


Tree=8
num_leaves=31
num_cat=9
split_feature=20 73 0 17 3 26 42 11 43 3 32 33 32 69 33 7 69 7 29 69 33 34 16 75 34 28 30 29 42 38
split_gain=160.503 120.376 65.8558 42.3502 43.5374 25.7129 18.5659 16.2017 15.9493 14.2512 12.6515 11.7298 11.4152 10.9984 10.8365 12.3813 8.90402 9.17554 8.56846 8.42931 7.83191 7.79064 7.12714 6.71389 6.70937 7.82917 9.25818 6.64498 8.38396 13.1745
threshold=1.0000000180025095e-35 1.0000000180025095e-35 0 1 2 6.5000000000000009 3 4 5 6 90.250000000000014 146.25000000000003 110.25000000000001 72.500000000000014 21.950000000000003 415.76000000000005 26.500000000000004 26.635000000000002 139.50000000000003 33.500000000000007 25.750000000000004 61.250000000000007 7 3.5000000000000004 47.850000000000001 722.50000000000011 583.50000000000011 226.50000000000003 8 190.50000000000003
decision_type=2 2 1 9 1 8 9 1 1 1 2 2 2 2 2 2 2 2 2 2 2 2 1 2 2 2 2 2 9 2
left_child=-1 2 5 6 7 10 -4 18 -6 20 13 -7 19 -2 -10 16 -16 23 -5 -11 -8 -22 -9 -18 25 -24 -27 -20 -29 -30
right_child=1 -3 3 4 8 11 9 22 14 12 -12 -13 -14 -15 15 -17 17 -19 27 -21 21 -23 24 -25 -26 26 -28 28 29 -31
leaf_value=-0.055046802070805173 0.070408394080787418 -0.054801410458745925 -0.0023106409783073107 0.06295680078451403 -0.0034637511270855029 -0.050470158923935929 0.01722935615329774 0.03551116669873991 -0.0019660595919612648 0.069445142488225947 -0.022526692994463832 -0.011179429547807153 -0.011460521597417664 -0.0027415354034970906 0.0042273450978367755 -0.0046020635903147658 0.053916194752469185 0.07185636594166292 -0.026453588185644666 0.023956274222101549 0.070615050928213824 0.030307446072559769 -0.025116551259932403 0.0037922381084763571 -0.038027238314679246 0.027502063439201547 -0.030173332619628221 0.022143653693621257 0.044331529654906533 -0.021235450878932301
leaf_weight=113.96551631391048 11.247488416731359 68.490585222840309 34.001466631889343 5.98260673880577 32.952644884586334 51.78851043432951 10.323568075895308 4.9327207133173943 11.998762808740137 11.615857243537901 12.449958048760889 30.764701627194881 18.701298423111439 8.7280469089746457 8.2581167966127378 9.8093917667865735 15.850847773253919 51.379387564957142 13.065479494631289 67.556206338107586 91.268187627196312 16.277671702206135 44.297526903450489 11.33642505854368 38.189580395817757 19.318550392985347 9.6242826804518682 48.271340511739254 8.7355651631951314 35.244124792516232
leaf_count=1271 77 757 225 43 231 475 64 40 86 74 89 247 134 63 54 67 101 335 102 449 531 101 364 74 344 152 74 359 67 283
internal_value=0.000210552 0.00811695 0.0140548 0.0203439 0.00892461 -0.0197389 0.0361387 -0.00476466 0.0296929 0.0420165 0.0159361 -0.0361369 0.0210582 0.0398396 0.0391443 0.0482259 0.0541789 0.0593101 0.00851957 0.0314132 0.0561364 0.0648497 -0.0171092 0.0338918 -0.0212555 -0.0121159 0.00795623 0.00566548 0.0104494 -0.00614896
internal_weight=916.426 802.461 733.97 618.992 369.247 114.979 249.744 227.662 141.586 215.743 32.4255 82.5532 97.8734 19.9755 108.633 96.6342 86.8248 78.5667 111.299 79.1721 117.869 107.546 116.363 27.1873 111.43 73.2404 28.9428 105.317 92.251 43.9797
internal_count=7333 6062 5305 4354 2776 951 1578 1828 948 1353 229 722 657 140 717 631 564 510 854 523 696 632 974 175 934 590 226 811 709 350
cat_boundaries=0 1 2 3 4 5 6 7 8 9
cat_threshold=16 20544 19 608208932 175568208 218292978 6 2 270790920
is_linear=0
shrinkage=0.05


Tree=9
num_leaves=31
num_cat=10
split_feature=20 73 17 4 33 4 43 30 11 32 33 38 63 34 29 29 4 63 76 11 34 1 11 74 74 33 34 1 28 69
split_gain=149.404 111.785 63.4703 43.9346 28.9679 19.0469 17.7458 15.4292 15.3414 11.2896 11.0519 10.5375 8.43751 8.42847 8.25991 9.21075 8.2484 9.39931 8.21451 7.81327 10.8995 7.38074 9.10097 10.0686 9.67062 8.75298 7.69412 7.07472 6.57868 6.23815
threshold=1.0000000180025095e-35 1.0000000180025095e-35 0 1 14.450000000000001 2 3 321.50000000000006 4 103.35000000000001 15.850000000000003 95.500000000000014 5 69.750000000000014 240.50000000000003 169.50000000000003 6 7 4.5000000000000009 8 27.950000000000003 7683.5000000000009 9 15.500000000000002 21.500000000000004 146.25000000000003 30.950000000000003 5525.0000000000009 474.50000000000006 30.500000000000004
decision_type=2 2 9 1 2 1 1 2 1 2 2 2 1 2 2 2 1 1 2 1 2 2 1 2 2 2 2 2 2 2
left_child=-1 2 4 6 -2 21 18 19 16 13 -8 -12 14 28 15 -13 17 -9 -4 20 -5 22 25 -24 -25 26 -6 -18 -7 -21
right_child=1 -3 3 7 5 9 10 8 -10 -11 11 12 -14 -15 -16 -17 27 -19 -20 29 -22 -23 23 24 -26 -27 -28 -29 -30 -31
leaf_value=-0.054733173649631123 -0.051265130243523131 -0.054479308623957848 -0.02992461789145881 0.037666695088222568 0.026113114190602912 0.013078737402888905 -0.029033791694289351 0.069640385870230165 -0.014553652406076612 -0.0083852984840524104 0.07991868437338627 0.010354556346596372 0.051134555055948917 -0.014710290437552107 0.011250118832928251 0.096554443453112745 0.022949382528344012 0.0021626036597704123 0.019481878924620926 0.0068515936060768862 -0.01563187151078288 0.090381718098563837 0.045151333276508693 0.09261880417598907 0.02381513543793139 0.042422232031069672 -0.019012885170389484 -0.023892337295526103 0.041744381183754335 -0.032664083547244406
leaf_weight=109.36457253992558 9.4806665703654271 66.068527184426785 22.498647853732109 12.486158311367033 18.016468942165375 34.949163138866425 6.1523815318942061 17.927100971341133 57.510434843599796 33.880941659212112 11.70747087150812 6.2406268343329412 32.510945066809654 11.245274789631365 55.584348253905773 5.7351957261562347 14.246945999562742 7.185603246092799 12.255285300314425 10.622470788657663 32.220409788191319 9.6191792935132963 53.91746961325407 30.842239156365395 7.0860641300678244 24.068338848650455 17.795922942459583 16.110202506184578 50.181113071739674 110.84587354212999
leaf_count=1275 93 763 164 96 108 242 53 129 454 243 74 46 207 80 359 40 107 52 87 88 275 52 321 179 42 145 117 122 326 971
internal_value=-0.000198691 0.00732498 0.0129629 0.000300741 0.030058 0.0338954 0.0210061 -0.0113912 0.002455 0.0151078 0.0301195 0.0362746 0.0304284 0.0249196 0.0198638 0.0558952 0.0192102 0.0369896 -0.00972485 -0.0214448 -0.000203175 0.0451639 0.0446814 0.0546581 0.0807063 0.0169675 0.00378173 -0.00142405 0.0302645 -0.0269778
internal_weight=908.356 798.991 732.923 431.84 301.083 291.602 152.685 279.155 112.98 130.256 117.931 111.779 100.071 96.3756 67.5602 11.9758 55.4699 25.1127 34.7539 166.175 44.7066 161.346 151.727 91.8458 37.9283 59.8807 35.8124 30.3571 85.1303 121.468
internal_count=7310 6035 5272 3324 1948 1855 1030 2294 864 891 779 726 652 648 445 86 410 181 251 1430 371 964 912 542 221 370 225 229 568 1059
cat_boundaries=0 1 2 3 4 5 6 7 8 9 10
cat_threshold=20544 496 60 486843106 140991552 1 10 1 437936176 1139492965
is_linear=0
shrinkage=0.05


Tree=10
num_leaves=31
num_cat=9
split_feature=20 73 17 3 33 3 11 43 33 42 32 69 28 37 69 6 7 74 32 1 34 6 6 32 10 32 6 38 74 11
split_gain=141.175 101.022 50.4411 44.6004 25.5207 21.7716 16.3317 12.103 11.2512 10.6685 9.96871 8.55014 8.48234 12.7977 9.3871 9.16763 8.39033 8.22384 8.2197 8.21318 7.36851 11.225 16.1616 6.96782 6.84258 6.52761 6.88976 6.18883 8.36846 6.66619
threshold=1.0000000180025095e-35 1.0000000180025095e-35 0 1 14.450000000000001 2 3 4 14.450000000000001 5 112.75000000000001 145.50000000000003 1196.5000000000002 6 63.500000000000007 1613.4100000000001 13.225000000000003 11.500000000000002 45.050000000000004 7191.5000000000009 22.350000000000005 49.900000000000006 578.5200000000001 92.450000000000017 7 52.350000000000001 57.995000000000012 363.50000000000006 7.5000000000000009 8
decision_type=2 2 9 1 2 1 1 1 2 9 2 2 2 9 2 2 2 2 2 2 2 2 2 2 1 2 2 2 2 1
left_child=-1 2 4 7 -2 12 8 18 -5 16 19 27 13 -6 17 25 -10 23 -4 -7 -11 -22 -23 -15 -20 -16 -27 28 -8 -29
right_child=1 -3 3 6 5 10 11 -9 9 20 -12 -13 -14 14 15 -17 -18 -19 24 -21 21 22 -24 -25 -26 26 -28 29 -30 -31
leaf_value=-0.054431594697388078 -0.050764937013965755 -0.05412747304706178 -0.0010388281744512743 -0.050821133685946963 -0.0056134386352264202 0.022660187474494348 0.024527014634399495 -0.00058585677714002025 0.041712366125356122 -0.0093438549918654669 -0.017397838801370951 -0.042813682651818258 0.066685113387438474 0.058240041746539878 0.0046006501994578066 -0.012788689248728953 -0.021424544453986345 0.076065533604337002 0.016045674005816277 -0.028819427203157125 -0.012925785678400996 0.060235801136230574 0.0033640640755510302 -0.001207700656070751 0.050946361531556565 0.020161313136760166 0.067257273177553076 0.0094379819558556635 -0.036876268627799406 -0.018472915420574762
leaf_weight=104.01839306950569 9.0495243296027166 60.910575941205025 12.277349121868609 8.2508955225348455 20.150895282626152 105.03762784600258 5.6822134852409354 43.844066679477692 5.0475994870066634 18.897804774343967 21.731160789728165 38.011362567543983 36.212309747934341 10.447638876736166 10.174374513328074 9.2714072316884977 42.554229736328125 35.438562400639057 19.69195618480444 7.5159297063946715 14.193866707384585 29.056986778974533 21.589087039232254 8.5862528234720212 61.192821390926838 13.482625380158423 21.951129943132401 34.389093361794949 41.184398308396339 31.626053936779499
leaf_count=1268 92 736 80 78 126 690 45 302 40 138 162 354 196 60 62 59 354 199 131 58 107 218 171 49 375 82 134 280 344 269
internal_value=6.68664e-05 0.00723485 0.0123759 0.000882092 0.0273112 0.0307346 -0.0101757 0.0233409 0.00234525 0.00622122 0.0121275 -0.0211311 0.0423799 0.038372 0.0430614 0.0314188 -0.0116186 0.0617757 0.033474 0.018999 0.0158773 0.0256699 0.0365274 0.0327013 0.0427493 0.0404871 0.0503824 -0.0153734 -0.0290747 -0.00535768
internal_weight=901.468 797.45 736.539 427.49 309.049 300 290.484 137.006 139.59 131.34 134.285 150.893 165.715 129.503 109.352 54.8795 47.6018 54.4725 93.1621 112.554 83.7377 64.8399 50.6461 19.0339 80.8848 45.6081 35.4338 112.882 46.8666 66.0151
internal_count=7259 5991 5255 3286 1969 1877 2398 888 1106 1028 910 1292 967 771 645 337 394 308 586 748 634 496 389 109 506 278 216 938 389 549
cat_boundaries=0 1 2 3 4 5 6 7 8 9
cat_threshold=20544 4 6 442922074 616502533 1142687827 1083462 2 26806656
is_linear=0
shrinkage=0.05


Tree=11
num_leaves=31
num_cat=6
split_feature=20 73 0 4 30 43 11 7 32 11 74 33 28 2 6 34 75 6 74 28 28 6 6 69 76 69 75 6 34 33
split_gain=132.455 96.6042 64.3367 29.2559 23.6427 16.9922 13.6503 9.78955 9.0848 7.72788 8.22447 7.67844 7.33239 7.21034 7.07678 6.93598 6.65297 7.12667 7.60393 6.96354 9.26935 6.61975 6.57213 9.98247 9.41739 7.31708 7.10836 6.9885 10.0113 6.7014
threshold=1.0000000180025095e-35 1.0000000180025095e-35 0 1 304.50000000000006 2 3 16.055000000000003 32.550000000000004 4 20.500000000000004 146.25000000000003 1071.5000000000002 5 68.215000000000018 41.850000000000001 5.5000000000000009 118.74000000000002 9.5000000000000018 474.50000000000006 729.50000000000011 96.710000000000022 2477.7750000000005 40.500000000000007 3.5000000000000004 25.500000000000004 1.0000000180025095e-35 47.040000000000006 19.450000000000003 132.25000000000003
decision_type=2 2 1 1 2 1 1 2 2 1 2 2 2 9 2 2 2 2 2 2 2 2 2 2 2 2 2 2 2 2
left_child=-1 2 4 6 7 -5 12 14 -7 -6 15 -9 -4 -8 -2 -11 17 18 -15 -19 -21 -14 23 24 29 -26 -24 -27 -29 -10
right_child=1 -3 3 5 9 8 13 11 22 10 -12 -13 21 16 -16 -17 -18 19 -20 20 -22 -23 26 -25 25 27 -28 28 -30 -31
leaf_value=-0.0541487946360397 -0.013720786127269706 -0.053856627754921116 -0.019813555143209524 -0.00049084127631015661 -0.013729052629046765 -0.014669096629347709 -0.013929264630004951 -0.045726241436009521 0.055216001317345303 0.027862541087701115 0.068410968708133887 -0.016445106718667276 -0.029507215861852704 0.04986804326732 0.04410219162357791 -0.014199217661941668 -0.011302289809374547 0.015985737964544024 -0.010808256573317694 0.086865338165987419 0.030143153906052156 0.028633982818728494 0.062716979110439622 0.03290239814178221 0.031689865476469077 0.0343518311176765 0.010068096507596897 0.044330234185033707 0.12499205883390828 0.0057861630812297837
leaf_weight=99.612549394369125 22.349846795201305 59.953127682209015 65.020313732326031 51.387728415429592 19.230076268315315 8.6497027575969678 13.319299489259718 57.155561029911041 13.713465839624407 26.290332205593586 7.1731404513120642 39.097191266715527 5.8717330694198635 5.8938040137290981 5.8421447798609725 14.519026301801203 12.594416283071039 26.084949634969234 19.657277286052704 11.187169142067431 22.213782548904419 16.603722594678402 6.7099021449685088 183.82280949503183 10.142886027693747 6.7346875369548824 41.747630424797535 7.3691860139369991 13.555255278944967 13.330397956073282
leaf_count=1270 179 757 517 349 138 56 104 545 82 171 49 309 44 43 45 109 96 196 152 77 160 126 45 1145 62 40 272 44 79 78
internal_value=-4.83901e-05 0.00668644 0.0116093 0.0200137 -0.0130918 0.0285941 0.00388007 -0.0266034 0.0333294 0.0100293 0.0186352 -0.0341238 -0.0102217 0.0149197 -0.000638006 0.0129162 0.0198673 0.0268706 0.00453885 0.0362291 0.0511143 0.0128346 0.0358891 0.0391942 0.0562595 0.0723962 0.0184791 0.085697 0.0999022 0.0319263
internal_weight=906.833 807.221 747.267 555.61 191.657 357.164 198.446 124.445 305.776 67.2126 47.9825 96.2528 87.4958 110.951 28.192 40.8094 97.6314 85.037 25.5511 59.4859 33.401 22.4755 297.126 248.669 64.8459 37.802 48.4575 27.6591 20.9244 27.0439
internal_count=7339 6069 5312 3767 1545 2252 1515 1078 1903 467 329 854 687 828 224 280 724 628 195 433 237 170 1847 1530 385 225 317 163 123 160
cat_boundaries=0 1 2 3 4 5 6
cat_threshold=17 1731 4245728 1168719748 90177793 167870496
is_linear=0
shrinkage=0.05


Tree=12
num_leaves=31
num_cat=7
split_feature=20 73 33 3 18 11 4 2 33 33 69 11 25 38 76 74 29 69 74 28 34 38 34 74 30 32 65 29 38 38
split_gain=120.947 85.2392 43.6787 39.6036 42.3467 19.458 18.6251 14.4187 10.6421 16.1929 10.3651 8.45662 7.94134 7.63769 7.85435 7.63505 7.39349 7.43474 7.13328 6.96029 5.9718 5.85401 5.65581 7.12405 5.79583 6.0395 5.51964 5.61881 5.24175 7.01097
threshold=1.0000000180025095e-35 1.0000000180025095e-35 14.450000000000001 0 1 2 3 4 48.550000000000004 114.60000000000001 145.50000000000003 5 6 666.50000000000011 3.5000000000000004 16.500000000000004 1197.5000000000002 57.500000000000007 10.500000000000002 544.50000000000011 25.950000000000003 793.50000000000011 32.850000000000001 12.500000000000002 313.50000000000006 110.25000000000001 1.0000000180025095e-35 1471.5000000000002 487.50000000000006 139.50000000000003
decision_type=2 2 2 1 9 1 1 9 2 2 2 1 1 2 2 2 2 2 2 2 2 2 2 2 2 2 10 2 2 2
left_child=-1 2 -2 26 7 16 12 -5 -9 -10 13 -11 18 19 -15 -12 17 -6 -7 -8 21 -13 23 -22 25 -24 27 -4 29 -21
right_child=1 -3 3 4 5 6 10 8 9 11 15 20 -14 14 -16 -17 -18 -19 -20 28 22 -23 24 -25 -26 -27 -28 -29 -30 -31
leaf_value=-0.053890466017101839 -0.052354486398194969 -0.05356165120270312 0.039609119118746421 -0.0080554385482811113 -0.011041499194313263 0.048133911112338959 0.016854133514048675 0.041835985224437738 -0.024222936287526333 -0.009517054401136097 -0.038508025496547471 0.023695312694843183 -0.025180698459411441 -0.037425270054402035 0.033601619941309606 0.025771556249726713 0.033495384750710198 -0.036514687426918428 -0.0075429467626384767 0.082264058817867747 0.020860487989324356 -0.02147934657366277 0.026711530515354621 0.084144306954038295 0.052174272342761507 -0.025991834523131703 -0.0046240503946785895 0.010835560149440808 0.09434618703572506 0.016030536067841675
leaf_weight=97.170775294303894 26.469813466072083 56.724137984216213 141.34767970442772 40.702045887708664 48.43669218569994 6.9179501533508327 15.422274656593798 66.182183273136616 19.277883678674698 17.304139517247677 9.3801903948187846 46.279956877231598 51.984512440860271 6.1016532331705076 7.6151737868785858 7.4034992903470984 4.5209169909358016 73.541608408093452 20.294783748686314 5.6961415782570901 7.8915549516677883 7.6479040682315818 20.474306188523773 12.473332785069941 15.388262659311293 6.3952926993370047 8.5512714684009534 20.302827917039394 7.7438606545329085 11.523250415921209
leaf_count=1296 276 749 856 274 393 49 116 390 132 118 77 277 433 45 55 61 38 672 153 39 46 48 134 72 91 45 53 119 53 82
internal_value=-0.00154737 0.00495091 0.00954409 0.0119329 0.00478668 -0.00870217 0.00360188 0.0189057 0.0240552 0.0177096 0.020686 0.0238836 -0.0123473 0.0340646 0.00161057 -0.0102987 -0.0224204 -0.0265715 0.0078155 0.0447823 0.0273632 0.0170144 0.0401684 0.0617455 0.028583 0.013685 0.0321461 0.0360841 0.0607226 0.0412531
internal_weight=887.166 789.995 733.271 706.801 536.599 276.583 150.083 260.017 219.315 153.133 70.886 133.855 79.1972 54.1024 13.7168 16.7837 126.499 121.978 27.2127 40.3855 116.551 53.9279 62.6227 20.3649 42.2579 26.8696 170.202 161.651 24.9633 17.2194
internal_count=7242 5946 5197 4921 3893 2266 1163 1627 1353 963 528 831 635 390 100 138 1103 1065 202 290 713 325 388 118 270 179 1028 975 174 121
cat_boundaries=0 1 2 3 4 5 6 7
cat_threshold=4 65616 1703478183 1541 304644262 37884198 4
is_linear=0
shrinkage=0.05


Tree=13
num_leaves=31
num_cat=8
split_feature=20 73 33 4 65 18 11 0 43 42 33 11 28 69 32 28 33 28 18 30 32 34 32 34 34 30 28 1 7 1
split_gain=118.881 83.7105 42.5436 36.181 17.6602 15.9904 13.8616 9.92618 18.5793 12.3021 8.77294 11.2507 8.59196 8.10823 7.84311 7.36221 7.25363 7.201 6.93815 6.30107 9.10729 5.99464 5.82603 5.80976 21.3461 5.69619 5.62222 5.3327 5.30878 8.16958
threshold=1.0000000180025095e-35 1.0000000180025095e-35 14.450000000000001 0 2.5000000000000004 1 2 3 4 5 43.350000000000001 6 602.50000000000011 103.50000000000001 85.050000000000011 428.50000000000006 25.750000000000004 579.50000000000011 7 933.50000000000011 110.85000000000001 24.450000000000003 88.050000000000011 25.550000000000004 31.550000000000004 491.50000000000006 1491.5000000000002 5712.5000000000009 17.895000000000003 5892.0000000000009
decision_type=2 2 2 1 8 9 1 1 1 9 2 1 2 2 2 2 2 2 9 2 2 2 2 2 2 2 2 2 2 2
left_child=-1 2 -2 4 -4 10 17 8 12 22 16 21 -6 -8 -14 -13 -5 -7 -10 25 -21 -12 -9 -24 -25 28 -15 -17 29 -11
right_child=1 -3 3 5 7 6 13 9 18 19 11 15 14 26 -16 27 -18 -19 -20 20 -22 -23 23 24 -26 -27 -28 -29 -30 -31
leaf_value=-0.053639557130723325 -0.05195208708345881 -0.053303636839432927 -0.053601398010627604 -0.0068617818533944904 0.0054709961504956052 -0.014418850286016549 -0.012411475942142196 -0.00079485851865165695 0.0076839100489109182 -0.025137242354472705 0.022078365340560353 -0.0040756609209106655 0.08701415960226061 -0.047555645169984395 0.021099123436882299 0.044496875799359958 0.04962912196872038 0.026259981971540586 -0.024196945375875925 0.063250834160850755 0.0020185479200553417 -0.031078029035501012 -3.1905493128500742e-05 0.088106604471552843 0.0010408876093941498 0.010523404538273459 0.0056866188519081188 0.0077694514212908947 0.037387031942276383 0.032048186295095281
leaf_weight=93.726520478725433 25.766258895397186 55.163959048688412 6.8271431475877762 7.3823640048503902 11.468764171004297 16.518061347305775 58.507197014987469 58.320381253957748 24.879675194621086 8.7907222956419009 5.735035464167594 25.497742801904678 10.753721013665201 38.469820864498615 8.6680263653397542 24.132463976740837 20.821941912174225 28.234873697161674 33.321181654930115 33.064912751317024 7.4717298671603194 27.989440724253654 17.313538290560246 10.890086628496649 17.317373812198639 32.400529399514198 5.4415652230381957 17.113361284136772 148.06400634348392 16.577316448092461
leaf_count=1308 280 762 47 48 90 145 510 368 175 59 39 176 68 379 56 148 128 215 266 186 45 197 108 65 115 195 49 115 908 94
internal_value=-0.000661583 0.00558181 0.00999143 0.0122709 0.0208061 -0.00222956 -0.0130481 0.0225541 0.00497748 0.0261133 0.0101974 0.00393045 0.0309126 -0.0227384 0.0600696 0.0148057 0.0351142 0.00923928 -0.0115135 0.0326904 0.0522848 -0.0168193 0.00887246 0.022916 0.0365202 0.0301778 -0.0409781 0.0298029 0.0337683 0.0120301
internal_weight=896.63 802.903 747.739 721.973 446.129 275.844 147.172 439.302 89.0914 350.211 128.672 100.468 30.8905 102.419 19.4217 66.7436 28.2043 44.7529 58.2009 246.369 40.5366 33.7245 103.841 45.521 28.2075 205.833 43.9114 41.2458 173.432 25.368
internal_count=7344 6036 5274 4994 2845 2149 1298 2798 655 2143 851 675 214 938 124 439 176 360 441 1487 231 236 656 288 180 1256 428 263 1061 153
cat_boundaries=0 1 2 3 4 5 6 7 8
cat_threshold=444 65616 135328864 17 10939402 407144654 409089464 272
is_linear=0
shrinkage=0.05


Tree=14
num_leaves=31
num_cat=8
split_feature=20 73 33 17 3 11 11 43 4 69 16 28 6 32 28 34 69 38 29 33 76 4 34 34 69 50 24 76 34 69
split_gain=115.19 80.4337 40.1404 27.0646 35.9501 19.4083 11.5377 10.5806 10.3484 8.49131 8.33449 10.3943 8.88465 7.32749 6.78137 6.75906 6.41823 6.3959 9.69635 8.54628 8.42333 5.66098 8.61286 9.36597 8.89879 6.92218 6.82399 5.40966 5.11184 5.54168
threshold=1.0000000180025095e-35 1.0000000180025095e-35 14.450000000000001 0 1 2 3 4 5 81.500000000000014 6 598.50000000000011 71.390000000000015 51.850000000000001 406.50000000000006 21.350000000000005 52.500000000000007 878.50000000000011 733.50000000000011 25.750000000000004 4.5000000000000009 7 31.550000000000004 26.650000000000002 169.50000000000003 1.0000000180025095e-35 1.5500000000000003 2.5000000000000004 17.450000000000003 204.50000000000003
decision_type=2 2 2 9 1 1 1 1 1 2 1 2 2 2 2 2 2 2 2 2 2 1 2 2 2 2 10 2 2 2
left_child=-1 2 -2 6 7 8 10 16 -6 13 11 12 14 15 -4 -7 -5 18 19 -13 -20 22 23 -8 -24 26 -23 -14 -9 -30
right_child=1 -3 3 4 5 9 21 28 -10 -11 -12 17 27 -15 -16 -17 -18 -19 20 -21 -22 25 24 -25 -26 -27 -28 -29 29 -31
leaf_value=-0.053387896898658221 -0.051401352300862235 -0.05303598626557561 0.012479994457932913 0.026551373683269427 0.026841229573984455 -0.01110877900896421 0.00070230790332393399 0.01214034642795404 -0.005464999898885145 -0.030762622846208388 0.084334750249711196 0.009844210892164312 -0.0085475540839602283 -0.015165121997139153 -0.040961802734212023 0.045112252501725542 -0.018433485819232754 0.00030781609426316361 0.038532636731469484 0.063387378971865221 -0.020795345396490583 0.044407832690265041 -0.036591663689690829 0.065655777080686747 0.013424662520972972 -0.016365938326247862 0.0068601916852442414 0.034019327800429239 0.03946221817947522 -0.0054095832574257872
leaf_weight=88.39286707341671 24.268453605473042 52.153184294700623 14.692329913377764 10.410646207630633 40.408759541809559 9.7199993282556552 19.282678373157982 30.337863445281982 46.610095217823982 73.728388160467148 7.1257293894886962 9.0502078458666784 8.3133565783500654 77.034631997346878 8.6053388193249685 10.073989540338514 25.110743686556816 8.3585073724389058 16.29961716383696 55.67499241232872 8.3635322749614698 30.20333818346262 22.256140388548374 6.8054193928837767 13.720396578311918 9.0320157483220083 20.455093428492546 50.560032673180103 90.685886062681675 7.1954373195767394
leaf_count=1291 276 753 87 69 284 80 118 176 364 705 42 50 53 627 54 78 176 48 92 302 50 193 143 41 91 60 116 311 543 48
internal_value=0.000467808 0.00642896 0.0106047 0.0127333 0.00402293 -0.00758342 0.0236721 0.0216086 0.0108656 -0.0170842 0.031954 0.0311909 0.0177564 -0.0082074 -0.00813295 0.0182979 -0.00383358 0.0421905 0.0460601 0.0561644 0.0183875 0.00935577 -0.00173338 0.0194445 -0.0176697 0.0193615 0.029673 0.0279662 0.028403 0.0361423
internal_weight=894.93 806.537 754.384 730.115 421.316 257.576 308.799 163.741 87.0189 170.557 187.044 179.918 82.1711 96.8286 23.2977 19.794 35.5214 97.7469 89.3883 64.7252 24.6631 121.755 62.0646 26.0881 35.9765 59.6904 50.6584 58.8734 128.219 97.8813
internal_count=7321 6030 5277 5001 3150 2138 1851 1012 648 1490 1089 1047 505 785 141 158 245 542 494 352 142 762 393 159 234 369 309 364 767 591
cat_boundaries=0 1 2 3 4 5 6 7 8
cat_threshold=20544 12 167925072 1012144986 486596850 10 1 1097
is_linear=0
shrinkage=0.05


Tree=15
num_leaves=31
num_cat=8
split_feature=20 73 33 3 17 11 43 8 11 33 6 38 32 32 30 32 29 29 32 7 29 16 34 76 28 34 7 38 34 43
split_gain=105.738 72.4803 36.6657 29.4818 34.1506 16.1502 10.0276 9.79052 9.72575 8.93795 7.72551 7.31236 7.38795 11.935 7.25408 6.95142 6.80654 8.01377 9.54722 6.71249 6.39781 6.1267 6.95381 7.21136 7.33559 6.24038 6.02121 5.52066 6.61024 5.32135
threshold=1.0000000180025095e-35 1.0000000180025095e-35 14.450000000000001 0 1 2 3 4 5 28.850000000000005 57.995000000000012 683.50000000000011 51.350000000000001 38.150000000000013 851.50000000000011 43.750000000000007 427.50000000000006 584.50000000000011 96.050000000000011 390.83500000000009 1276.0000000000002 6 50.150000000000013 3.5000000000000004 780.50000000000011 18.850000000000005 112.22000000000001 291.50000000000006 17.650000000000002 7
decision_type=2 2 2 1 9 1 1 9 1 2 2 2 2 2 2 2 2 2 2 2 2 1 2 2 2 2 2 2 2 1
left_child=-1 2 -2 6 8 7 16 15 9 -5 -8 12 13 -9 21 -6 26 18 -18 -19 -7 22 25 -24 -25 27 -4 -10 -29 -11
right_child=1 -3 3 4 5 20 10 11 14 29 -12 -13 -14 -15 -16 -17 17 19 -20 -21 -22 -23 23 24 -26 -27 -28 28 -30 -31
leaf_value=-0.053158730165099435 -0.051010146725798525 -0.052773887900422894 0.071666690054360369 0.041600046916013642 -0.020881987696482751 -0.022953310052597972 -0.02369972235321656 -0.023144392413514056 -0.018778387415532269 0.0070702836304834347 0.017805598646940101 -0.041118243533931675 -0.011669989316946317 0.074438649109415125 0.051845403195156882 0.023557817542833613 0.028800760029932201 0.044587550384360054 -0.036102774741633516 -0.0033359138203771822 0.032379525015484321 0.061771258095094407 -0.021792352374345837 0.03856654874642073 -0.019750191467606794 0.031735980929389729 0.026896472208619373 0.032713135851346498 -0.020022702703693957 -0.017228471340633801
leaf_weight=84.968716666102409 23.659648925065994 49.644752979278564 24.107969917356968 10.891196861863135 9.3586923629045469 129.81392157077789 14.44627772271633 4.9027202278375608 12.546831287443636 40.055425390601158 40.225773669779301 14.102956011891363 39.346124395728111 6.1746336072683334 20.43960365653038 65.2321707457304 13.89703741669655 61.395475268363953 8.1547344774007779 8.1245649009942991 4.5942200720310202 7.7674420997500411 18.795076988637447 14.934331580996515 7.3917556479573241 85.615920029580593 13.236345387995241 22.408385299146179 7.2070022076368323 31.744445741176605
leaf_count=1299 281 751 134 65 69 1161 90 41 76 253 250 120 320 49 109 479 77 334 47 47 39 45 120 97 47 502 76 126 43 208
internal_value=-0.000431153 0.00515719 0.00900286 0.0109962 0.00480888 -0.00763338 0.0277532 0.00432718 0.0168009 0.00127258 0.00560325 -0.00919401 -0.00142705 0.0329091 0.0229038 0.0157023 0.0359678 0.0307886 0.00427449 0.039019 -0.0194038 0.0205715 0.0183244 0.000413381 0.01924 0.0240405 0.0569136 0.00804054 0.0196449 -0.00515722
internal_weight=895.184 810.215 760.571 736.911 553.323 273.525 183.588 139.117 279.797 82.6911 54.6721 64.5264 50.4235 11.0774 197.106 74.5909 128.916 91.5718 22.0518 69.52 134.408 176.667 168.899 41.1212 22.3261 127.778 37.3443 42.1622 29.6154 71.7999
internal_count=7355 6056 5305 5024 3969 2278 1055 1078 1691 526 340 530 410 90 1165 548 715 505 124 381 1200 1056 1011 264 144 747 210 245 169 461
cat_boundaries=0 1 2 3 4 5 6 7 8
cat_threshold=4 20544 414612568 1672287509 12860932 53191716 1 18980868
is_linear=0
shrinkage=0.05


Tree=16
num_leaves=31
num_cat=8
split_feature=20 73 0 30 65 3 17 11 33 11 29 11 69 32 2 38 38 38 29 6 6 32 32 33 6 1 42 75 32 30
split_gain=97.4934 66.256 34.3983 21.5417 17.2909 17.6175 19.9041 14.3353 12.628 10.873 10.4508 7.99484 8.13361 7.41097 7.16791 6.4358 7.36756 11.1735 6.83822 6.22354 6.18507 8.57562 7.99486 5.82059 5.50934 5.42001 5.2843 6.35934 9.05393 10.5366
threshold=1.0000000180025095e-35 1.0000000180025095e-35 0 502.50000000000006 2.5000000000000004 1 2 3 146.25000000000003 4 115.50000000000001 5 189.50000000000003 86.550000000000011 6 670.50000000000011 476.50000000000006 395.50000000000006 447.50000000000006 9172.7500000000018 57.995000000000012 43.050000000000004 86.950000000000017 194.35000000000005 188.47500000000002 5816.5000000000009 7 3.5000000000000004 88.450000000000017 491.50000000000006
decision_type=2 2 1 2 8 1 9 1 2 1 2 1 2 2 9 2 2 2 2 2 2 2 2 2 2 2 9 2 2 2
left_child=-1 2 3 8 -4 11 9 10 -2 19 -8 23 20 -5 15 16 17 18 -12 25 -13 -22 -23 -6 -20 -7 -11 -28 29 -29
right_child=1 -3 4 13 5 6 7 -9 -10 26 14 12 -14 -15 -16 -17 -18 -19 24 -21 21 22 -24 -25 -26 -27 27 28 -30 -31
leaf_value=-0.052938171960402819 -0.044530965320506426 -0.052536161258998237 -0.054684605403287213 0.049822477174996604 0.04851140756979911 -0.0043802999476705113 0.061188794456118425 -0.014870384867022383 -0.0050527178986935284 -0.0054041791669237355 0.0040837198444690056 -0.015045886117014733 0.051000738862850364 -0.0078948342233965338 -0.0078195290668760919 -0.0096905013569682265 0.05799626882316633 -0.043959228472317896 0.084842225700951193 0.031322389549605076 0.064140207059518381 -0.013371334757323728 0.028346547245487231 0.015859043405683799 0.015413495856001014 -0.049722273494798797 0.018794016868340369 0.067184710028195954 0.018004548562934122 0.005099289709883683
leaf_weight=81.409962955862284 54.27396472543478 47.471179313957691 8.5567652583122236 11.92701329290867 71.092952743172646 28.879654474556446 8.0744956955313665 113.88896781951189 32.419010475277901 17.542455650866032 14.588059462606909 22.582457132637501 10.890722177922724 9.3402404561638814 52.867275848984718 15.058861650526522 12.911701358854769 5.8395386189222327 5.9481202736496908 8.0483652204275113 6.8327820077538481 22.601292885839939 21.477926358580589 18.403017282485962 5.772582121193409 7.6306738629937163 99.228458978235722 31.767184309661388 32.299013651907444 8.8532587960362417
leaf_count=1303 539 751 61 77 381 181 56 1006 260 112 105 137 68 63 440 112 91 44 43 49 41 134 123 99 44 49 564 179 182 48
internal_value=-0.00113331 0.00415135 0.00775847 -0.0173826 0.0120261 0.0131839 0.00751952 -0.00281852 -0.029994 0.0175498 0.00881363 0.0263988 0.0112764 0.0252578 0.00533991 0.0155808 0.0274361 0.0137829 0.0277398 -0.00497856 0.00629803 0.0158728 0.0071339 0.0378627 0.0545476 -0.0149297 0.0228246 0.025853 0.0385721 0.0541008
internal_weight=888.478 807.068 759.597 107.96 651.637 643.08 469.199 234.95 86.693 234.249 121.061 173.881 84.3852 21.2673 112.986 60.1189 45.06 32.1483 26.3088 44.5587 73.4945 50.912 44.0792 89.496 11.7207 36.5103 189.69 172.148 72.9195 40.6204
internal_count=7342 6039 5288 939 4349 4288 3305 1941 799 1364 935 983 503 140 879 439 327 236 192 279 435 298 257 480 87 230 1085 973 409 227
cat_boundaries=0 1 2 3 4 5 6 7 8
cat_threshold=16 4 20544 448459864 19595300 615253265 402840588 606306308
is_linear=0
shrinkage=0.05


Tree=17
num_leaves=31
num_cat=8
split_feature=20 73 17 4 44 44 6 0 44 74 69 24 1 6 32 29 32 29 76 34 29 69 74 1 59 34 34 38 25 32
split_gain=95.0492 64.0183 34.353 20.3592 16.4961 15.2192 10.7781 11.6116 9.98487 10.8648 10.5551 8.23341 6.92994 9.72832 8.4614 8.45438 10.5036 8.48841 6.24236 8.4626 9.76855 8.43379 6.22142 8.0553 6.19193 10.8435 6.13444 6.11055 6.03289 5.68462
threshold=1.0000000180025095e-35 1.0000000180025095e-35 0 1 2 3 39.500000000000007 4 5 7.5000000000000009 96.500000000000014 1.5500000000000003 5712.5000000000009 541.44000000000017 92.050000000000011 837.50000000000011 60.850000000000001 464.50000000000006 4.5000000000000009 46.050000000000004 162.50000000000003 163.50000000000003 18.500000000000004 5892.0000000000009 6 27.950000000000003 34.050000000000004 690.50000000000011 7 105.95000000000002
decision_type=2 2 9 1 1 1 2 1 1 2 2 10 2 2 2 2 2 2 2 2 2 2 2 2 1 2 2 2 1 2
left_child=-1 2 5 4 12 18 22 11 9 -5 26 29 13 24 15 16 17 -14 19 20 -2 -20 23 -7 25 -4 -10 -9 -11 -8
right_child=1 -3 3 8 -6 6 7 27 10 28 -12 -13 14 -15 -16 -17 -18 -19 21 -21 -22 -23 -24 -25 -26 -27 -28 -29 -30 -31
leaf_value=-0.052716412147936632 -0.022053112412652294 -0.052289884577493756 0.10053978254013135 0.049615567849382133 -0.0085006778600582329 0.0008978216073142998 -0.030230189722421974 0.047931750501241238 -0.015689855164144072 0.015499995929318276 -0.040689456730292416 0.038148751269367683 0.011117468054212216 0.00066868411716348433 -0.0049154726199266956 0.048688970872133489 0.033545350538838462 -0.051308895699431256 -0.023909632846060257 -0.0090256246283341324 0.037540166448071233 0.03093637449739934 -0.026825687816358548 0.056459545949039083 0.025730305186941228 0.015314583824638676 0.027435203121066554 0.022072788467538618 -0.015734028020596234 0.026808291884209613
leaf_weight=76.733940087258816 7.7808281853795043 44.719311103224754 10.233097702264788 9.6391759589314443 83.046332061290741 22.193046100437645 16.814003974199299 112.98716948181391 66.427086889743805 22.914737790822983 47.336334772408009 8.7938537299633044 12.566538318991663 14.315765887498854 42.969680413603783 21.20065388828516 22.280476182699203 8.2484499141573888 30.186848446726799 26.354506328701973 35.293787240982056 8.1165057122707349 9.7537371069192869 8.2586660310626012 16.361233524978161 6.2070086970925322 8.4715089201927167 31.880924917757511 42.915647611021996 4.9321057200431815
leaf_count=1286 51 740 60 77 591 135 143 607 580 169 490 50 82 97 267 120 144 52 190 176 211 53 58 43 100 41 77 177 377 41
internal_value=7.99188e-05 0.00518312 0.00863606 -0.00075759 0.00893326 0.020628 0.0284122 0.0350523 -0.0122531 0.00240058 -0.0207517 -0.000141257 0.018253 0.0352618 0.0122111 0.0235569 0.0103695 -0.0148385 0.00385997 0.0130903 0.0265194 -0.0117963 0.00619061 0.0172825 0.0498932 0.0710859 -0.0105149 0.0397091 -0.00479261 -0.0166838
internal_weight=879.933 803.199 758.48 435.134 237.429 323.346 215.614 175.408 197.704 75.4696 122.235 30.54 154.383 47.1171 107.266 64.2961 43.0955 20.815 107.732 69.4291 43.0746 38.3034 40.2054 30.4517 32.8013 16.4401 74.8986 144.868 65.8304 21.7461
internal_count=7285 5999 5259 3324 1554 1935 1254 1018 1770 623 1147 234 963 298 665 398 278 134 681 438 262 243 236 178 201 101 657 784 546 184
cat_boundaries=0 1 2 3 4 5 6 7 8
cat_threshold=20544 120 1789809941 321557548 16 140686450 1 4
is_linear=0
shrinkage=0.05


Tree=18
num_leaves=31
num_cat=9
split_feature=20 73 33 3 0 43 43 43 33 28 17 28 7 30 74 33 11 32 33 32 48 74 59 1 28 7 7 75 6 6
split_gain=87.4807 60.5942 32.0907 25.6323 15.5793 16.326 12.6572 12.5528 10.6878 9.16624 8.85867 8.29894 8.08114 7.94426 11.2792 10.3108 7.38093 7.55747 7.82917 6.95959 6.91097 6.62716 6.72199 8.61514 6.23239 6.1621 6.96197 5.78476 5.56925 5.47555
threshold=1.0000000180025095e-35 1.0000000180025095e-35 14.450000000000001 0 1 2 3 4 145.15000000000001 342.50000000000006 5 1379.5000000000002 599.94000000000017 454.50000000000006 7.5000000000000009 247.15000000000001 6 70.750000000000014 30.650000000000002 103.65000000000002 7 15.500000000000002 8 5671.0000000000009 279.50000000000006 90.015000000000015 18.350000000000005 1.5000000000000002 3573.4600000000005 269.00500000000005
decision_type=2 2 2 1 1 1 1 1 2 2 9 2 2 2 2 2 1 2 2 2 1 2 1 2 2 2 2 2 2 2
left_child=-1 2 -2 4 5 9 8 13 16 -4 19 -10 -8 14 29 20 17 -6 -19 25 21 -16 -23 -24 -14 26 -9 -15 -27 -5
right_child=1 -3 3 7 6 -7 12 10 11 -11 -12 -13 24 27 15 -17 -18 18 -20 -21 -22 22 23 -25 -26 28 -28 -29 -30 -31
leaf_value=-0.052497388025713104 -0.050414161270754911 -0.052076802896672048 -0.014611844005519565 0.065232216008419455 -0.021674925515895806 -0.014608171832775014 0.030794668982805362 0.029351192739146631 0.0092805180562842097 0.049173497320720988 -0.027555927239231448 0.052171642111558336 0.040360025896134737 0.061655466004250752 -0.032975683037041341 0.055433227749739335 -0.018242237421508139 0.067909694981190538 -0.0016310862160374769 -0.028054251214122996 0.024764562081943674 -0.024664661706310393 0.053261493559932385 -0.012918385363675945 -0.0099514474769696118 0.044077038274612901 -0.029448405051093824 0.014931816150447377 -0.0086279425454183368 0.0045964582411855155
leaf_weight=71.790977865457535 21.803800418972969 43.36153519898653 7.0421363413333919 7.7813446894288045 7.3713508769869831 70.212682031095028 245.1122786924243 6.8201412111520794 39.299496077001095 21.080128327012062 57.870986312627792 15.160832725465296 7.3194034397602108 8.3298102766275388 34.043067649006844 5.1336038857698432 40.677974067628384 8.1473811194300634 7.1772007569670668 14.71013931930065 10.230522036552427 16.133384242653847 8.2531497105956095 9.838626027107237 22.723403103649616 15.498570963740351 13.311293788254259 26.438012465834618 6.7858305498957625 6.7455902174115181
leaf_count=1260 274 752 56 57 44 535 1383 46 250 128 568 87 48 55 269 39 274 48 43 106 78 126 62 78 136 101 90 182 48 49
internal_value=-4.68977e-06 0.00473946 0.0080407 0.00983057 0.0162472 -0.00199499 0.0207418 -0.00341519 0.00543974 0.0247492 -0.014845 0.0219461 0.0268338 0.00685171 1.22438e-05 -0.00717474 -0.00802052 0.0126546 0.0372358 0.000401931 -0.0119149 -0.0176898 -0.00198069 0.0184802 0.00321134 0.0107822 -0.00908193 0.0275368 0.0283465 0.0391854
internal_weight=876.205 804.414 761.052 739.248 491.324 98.3349 392.989 247.924 117.834 28.1223 114.997 54.4603 275.155 132.927 98.1593 83.6324 63.3739 22.6959 15.3246 57.126 78.4987 68.2682 34.2252 18.0918 30.0428 42.4158 20.1314 34.7678 22.2844 14.5269
internal_count=7272 6012 5260 4986 3032 719 2313 1954 746 184 959 337 1567 995 758 652 409 135 91 391 613 535 266 140 184 285 136 237 149 106
cat_boundaries=0 1 2 3 4 5 6 7 8 9
cat_threshold=14 17 8809480 1229310178 672455025 159808 134219776 1 1
is_linear=0
shrinkage=0.05


Tree=19
num_leaves=31
num_cat=9
split_feature=20 73 33 17 4 42 2 2 41 34 43 74 6 7 1 34 34 33 6 74 34 25 74 69 38 29 30 69 69 0
split_gain=79.7195 54.9266 28.8497 20.4322 21.4579 13.9312 12.6356 11.372 8.52551 8.49768 11.1976 7.27282 6.51704 6.35607 8.43816 6.8535 6.81878 7.04396 6.15333 6.01233 5.76916 5.59859 5.51801 7.19347 5.77149 5.21938 5.15232 5.07859 12.2642 5.06586
threshold=1.0000000180025095e-35 1.0000000180025095e-35 14.450000000000001 0 1 2 3 4 5 45.350000000000001 6 18.500000000000004 392.49000000000007 382.29500000000002 5712.5000000000009 21.550000000000004 17.750000000000004 136.35000000000005 82.585000000000022 17.500000000000004 42.250000000000007 7 10.500000000000002 64.500000000000014 264.50000000000006 1105.5000000000002 577.50000000000011 56.500000000000007 97.500000000000014 8
decision_type=2 2 2 9 1 9 9 9 1 2 1 2 2 2 2 2 2 2 2 2 2 1 2 2 2 2 2 2 2 1
left_child=-1 2 -2 7 6 22 -5 19 29 -9 11 12 18 14 15 -8 -16 27 -11 21 -10 -4 23 -6 -25 -24 -12 -18 -29 -7
right_child=1 -3 3 4 5 8 13 9 20 10 26 -13 -14 -15 16 -17 17 -19 -20 -21 -22 -23 25 24 -26 -27 -28 28 -30 -31
leaf_value=-0.052319698444994012 -0.050070944693790531 -0.051891511483306563 0.015607391403418431 -0.0052594482197466097 0.018623055891730547 -0.012619471794757038 0.093615518106026488 0.027242542071185278 0.00080429462978790119 0.028578774111586686 -0.014314310477400531 -0.0059863960180207435 0.010565298308291003 -0.0072254245357036874 -0.0031475683323814729 0.030605525647301547 -0.0066954201126158191 0.052742831155716624 0.09164127661931909 0.016717026875807398 -0.032415775034622014 -0.035466679352892466 -0.035308044821124505 0.013948894443310926 -0.045203819542592789 0.018082638465453101 0.026700986576670034 0.065995891993295558 -0.012713353971001151 0.013902738062484746
leaf_weight=70.339162398129702 21.334956370294094 42.398006703704596 6.5363012254238129 56.406738460063934 14.545329712331293 14.913294576108456 7.7177646383643177 189.81260195374489 25.08081016689539 8.670407630503183 46.650493137538433 8.6450128108262998 9.290363743901251 12.451371058821676 19.60556647926569 11.612975820899008 14.185280993580816 21.473076336085796 8.6260646879672986 13.800074532628058 26.182469695806503 20.187478177249435 66.914386324584484 5.4017423242330578 12.358249112963675 4.314622350037097 8.1736744344234449 10.361772269010546 8.2803905904293043 87.962049283087254
leaf_count=1293 280 769 37 349 117 126 40 1042 211 51 303 53 59 76 107 67 79 123 51 82 266 125 619 50 120 36 44 57 53 649
internal_value=-0.00166328 0.00282855 0.00593928 0.00761914 0.000145881 -0.00870277 0.0138712 0.0168506 0.00114248 0.0205267 0.00848222 0.0261615 0.0459362 0.0236148 0.0302722 0.0591294 0.0220357 0.0310208 0.0633189 -0.00749972 -0.013815 -0.0228622 -0.0220621 -0.00675703 -0.0274279 -0.0318684 -0.00664099 0.0156729 0.0321678 0.00921035
internal_weight=874.232 803.893 761.495 740.16 419.768 257.673 162.095 320.392 154.139 279.869 90.056 35.2318 26.5868 105.688 93.2368 19.3307 73.9061 54.3005 17.2965 40.5239 51.2633 26.7238 103.534 32.3053 17.76 71.229 54.8242 32.8274 18.6422 102.875
internal_count=7334 6041 5272 4992 3145 2194 951 1847 1252 1603 561 214 161 602 526 107 419 312 102 244 477 162 942 287 170 655 347 189 110 775
cat_boundaries=0 1 2 3 4 5 6 7 8 9
cat_threshold=20544 368 3478389317 237324428 34637892 418405752 317720698 4 20
is_linear=0
shrinkage=0.05


Tree=20
num_leaves=31
num_cat=5
split_feature=20 73 0 26 65 34 42 42 11 11 74 7 33 38 30 76 6 33 7 33 28 34 33 30 6 34 6 6 6 6
split_gain=76.6181 53.5303 28.5055 17.5503 17.1371 13.9227 15.3292 9.52639 12.9292 10.2348 7.33984 7.31488 10.5554 6.99118 6.95764 6.65969 6.26077 6.01416 5.78121 7.18682 6.35309 5.75248 5.34153 5.20359 5.17685 5.40011 4.87586 6.88757 4.70549 4.61333
threshold=1.0000000180025095e-35 1.0000000180025095e-35 0 6.5000000000000009 2.5000000000000004 46.050000000000004 1 2 3 4 7.5000000000000009 194.23500000000004 152.15000000000001 29.500000000000004 883.50000000000011 2.5000000000000004 1026.325 22.850000000000005 261.06 210.70000000000002 819.50000000000011 15.850000000000003 177.75000000000003 458.50000000000006 78.435000000000016 60.550000000000004 1377.2450000000001 127.44500000000001 244.05500000000004 3170.2850000000003
decision_type=2 2 1 8 8 2 9 9 1 1 2 2 2 2 2 2 2 2 2 2 2 2 2 2 2 2 2 2 2 2
left_child=-1 2 3 15 -4 6 11 8 14 26 -10 -6 -13 -8 22 -2 23 28 -14 20 -20 -5 24 -17 -7 -26 27 -9 -15 -19
right_child=1 -3 4 21 5 7 13 9 10 -11 -12 12 18 17 -16 16 -18 29 19 -21 -22 -23 -24 -25 25 -27 -28 -29 -30 -31
leaf_value=-0.052128033153111812 -0.030062951299052898 -0.051700982115816689 -0.054655879661867871 0.014569491672836849 0.00062594884341621055 0.0070849733511120566 0.071003153763739127 -0.0040436613509013146 0.032427073757574525 -0.025538086997671086 -0.014960693241329363 0.0014771902045219905 0.076696403727575468 -0.0094123059957011805 0.074739529115456435 -0.027566453459088605 0.056710464087615313 0.03102955792580241 0.03094836200026187 0.067888520576319125 -0.029047821613522332 -0.037451618122669797 -0.0026837094057834028 0.023992006826234182 0.082740375535206787 0.02266005097998651 -0.017371797858728315 0.05341559027231077 0.036215066549502656 0.011828520136600976
leaf_weight=66.888636231422424 7.0861689895391455 41.126942701637745 9.0877399742603284 5.2752829007804385 173.37797646969557 10.837952665984632 7.4660528302192679 9.7097475156188064 8.7020236700773221 48.307960480451584 51.865345150232315 35.972998104989529 7.7000999152660397 21.493831239640716 6.8519361913204184 6.7507105097174707 7.745978705585002 151.32303025573492 10.23771114647389 6.2877281829714766 6.3076005652546874 63.421371623873711 14.196894899010656 12.350982397794722 6.9556538984179523 9.0907194465398771 8.4881206080317479 9.948456831276415 6.5499939545989028 41.529159709811211
leaf_count=1288 49 781 67 47 1093 80 44 74 64 385 392 236 42 149 40 48 49 877 68 40 39 650 102 81 49 63 66 72 41 259
internal_value=-0.00111408 0.00317858 0.00619291 -0.0172639 0.00995854 0.0110919 0.0156713 -0.000523634 0.00870752 -0.0130117 -0.00665518 0.00582463 0.0200301 0.0246171 0.0257384 0.0102924 0.0216408 0.0238458 0.0411484 0.0264453 0.00772394 -0.0333051 0.0221001 0.00530588 0.0348146 0.0520292 0.00962251 0.0262129 0.00212454 0.0269771
internal_weight=872.935 806.046 764.919 102.63 662.289 653.201 468.246 184.955 108.501 76.4543 60.5674 239.884 66.5061 228.362 47.9332 33.9338 26.8477 220.896 30.5331 22.833 16.5453 68.6967 41.0812 19.1017 26.8843 16.0464 28.1463 19.6582 28.0438 192.852
internal_count=7335 6047 5266 924 4342 4275 2888 1387 790 597 456 1518 425 1370 334 227 178 1326 189 147 107 697 294 129 192 112 212 146 190 1136
cat_boundaries=0 1 2 3 4 5
cat_threshold=16 1312877294 1111912632 349327578 1780529172
is_linear=0
shrinkage=0.05


Tree=21
num_leaves=31
num_cat=7
split_feature=20 73 0 26 21 65 4 11 34 43 34 42 53 1 7 7 34 28 32 28 28 28 11 6 6 1 28 28 6 38
split_gain=75.4507 51.5377 21.6463 17.6364 15.566 13.966 12.133 12.8371 9.05294 8.58248 8.41841 7.76504 12.5744 7.5822 7.37516 6.75814 6.14789 5.66964 5.56926 8.48199 4.85953 4.75078 4.72163 8.12436 7.02624 10.9073 7.47357 5.14483 4.66339 4.35475
threshold=1.0000000180025095e-35 1.0000000180025095e-35 0 6.5000000000000009 1 2.5000000000000004 2 3 15.850000000000003 4 30.750000000000004 5 1.0000000180025095e-35 5892.0000000000009 27.670000000000005 180.76000000000002 68.350000000000009 607.50000000000011 91.65000000000002 1391.5000000000002 734.50000000000011 632.50000000000011 6 17.895000000000003 428.4500000000001 5525.0000000000009 274.50000000000006 922.50000000000011 1613.4100000000001 29.500000000000004
decision_type=2 2 1 8 9 8 1 1 2 1 2 9 2 2 2 2 2 2 2 2 2 2 1 2 2 2 2 2 2 2
left_child=-1 2 3 18 14 -6 9 10 -5 17 13 12 15 -8 -4 -11 22 -7 19 -2 -18 -12 23 27 25 -25 -26 -9 -28 -24
right_child=1 -3 4 8 5 6 7 16 -10 11 21 -13 -14 -15 -16 -17 20 -19 -20 -21 -22 -23 29 24 26 -27 28 -29 -30 -31
leaf_value=-0.051944216411595405 0.0046986887592879688 -0.05147501112715578 0.0096478617485922166 0.028911621104708608 -0.053328013278005321 -0.04470861786350297 -0.0088906853117606474 -0.043325546750063691 -0.034760235578032449 0.060746995586077004 -0.0018930243790734984 -0.0044614113302253204 -0.023917493737741033 0.039284466751107104 0.071825493185595987 0.0083031086823797274 0.014097922491753654 -0.0084744371577358327 -0.01177635618011348 0.067118753046317078 -0.02657429656890839 -0.035379377867079446 0.060816909350118666 0.047478386821406281 0.034100686613039811 0.0097950286900814181 -0.033723998616547811 0.0078690491865188086 0.0055071689703335668 0.022851389898206648
leaf_weight=63.69838560000062 14.749382071197035 38.611665457487106 6.6016562581062344 5.3692634850740424 8.0694190114736539 17.415426269173622 17.67946764826775 9.8768574222922343 63.02817790210247 17.464786849915985 18.747058115899563 79.085974432528019 8.6476299390196782 13.728661894798277 20.138825446367264 9.7394056841731054 14.364253401756288 27.559991233050823 13.126156076788901 7.7818765863776198 13.136048421263693 23.707990325987339 7.2578974440693846 27.667252592742443 8.953041158616541 60.379338346421719 15.549014233052732 8.4624735265970212 13.519367329776285 220.90984036773443
leaf_count=1285 99 768 40 47 63 151 118 68 661 125 145 615 65 78 108 68 107 205 92 46 92 168 40 153 59 340 96 46 87 1325
internal_value=2.12108e-05 0.00416 0.00700295 -0.0134233 0.0102444 0.00822621 0.00922218 0.0130777 -0.0294173 -0.00285037 -0.00588006 0.0045911 0.0209192 0.0127293 0.0421734 0.0429316 0.0166414 -0.0190326 0.01356 0.0281936 -0.00558069 -0.0209765 0.0187377 0.00918084 0.014351 0.0220366 -0.0035553 -0.020517 -0.0159017 0.0233023
internal_weight=875.027 811.328 772.717 104.055 668.662 641.921 633.852 473.939 68.3974 159.913 73.8632 114.938 35.8518 31.4081 26.7405 27.2042 400.075 44.9754 35.6574 22.5313 27.5003 42.455 372.575 144.407 126.068 88.0466 38.0214 18.3393 29.0684 228.168
internal_count=7360 6075 5307 945 4362 4214 4151 2922 708 1229 509 873 258 196 148 193 2413 356 237 145 199 313 2214 849 735 493 242 114 183 1365
cat_boundaries=0 1 2 3 4 5 6 7
cat_threshold=16 20480 1665 1074299108 166081028 3937553 572662282
is_linear=0
shrinkage=0.05


Tree=22
num_leaves=31
num_cat=8
split_feature=20 73 33 17 4 2 43 11 11 69 7 69 10 28 74 7 74 33 7 34 34 28 34 34 28 34 38 2 26 33
split_gain=68.8452 44.737 25.9471 19.0226 12.6358 11.2289 8.40801 8.04272 7.9381 7.1432 7.05228 7.51292 7.35457 6.8389 6.76396 10.9216 10.1342 6.75605 8.19554 6.36386 6.30941 6.09567 5.86839 5.69944 7.79652 7.47144 8.19734 5.52998 5.18024 7.9602
threshold=1.0000000180025095e-35 1.0000000180025095e-35 14.450000000000001 0 1 2 3 4 5 68.500000000000014 13.225000000000003 141.50000000000003 6 564.50000000000011 12.500000000000002 151.04000000000002 20.500000000000004 25.950000000000003 33.120000000000012 17.350000000000005 21.750000000000004 161.50000000000003 32.95000000000001 16.550000000000004 648.50000000000011 49.050000000000004 303.50000000000006 7 3.5000000000000004 28.850000000000005
decision_type=2 2 2 9 1 9 1 1 1 2 2 2 1 2 2 2 2 2 2 2 2 2 2 2 2 2 2 9 10 2
left_child=-1 2 -2 5 6 9 14 10 22 -4 -6 12 28 21 17 16 27 -5 -19 -20 -8 -10 -7 -15 -25 -26 -27 -16 -12 -30
right_child=1 -3 3 4 7 8 20 -9 13 -11 11 -13 -14 23 15 -17 -18 18 19 -21 -22 -23 -24 24 25 26 -28 -29 29 -31
leaf_value=-0.051769130937028389 -0.049505863131548589 -0.051221276062742044 0.0090579663214132369 -0.012318967145559846 0.034518205062115975 0.018898463480686398 0.023308783123016999 -0.018251759899624541 0.047167676137782152 -0.026560561746887576 -0.019406105741362003 -0.02901483137544851 0.023737932491632384 0.0070531777384058095 0.022193981183205504 -0.020240931129792424 0.051732162059641401 0.0018904144053000069 0.0062933258579717299 0.059892341984643008 -0.014719946433971615 0.010692650834401898 -0.0055919314667963278 0.080341915924518267 0.045993516821736191 -0.032453417637910806 0.030205369427670582 -0.007405083750707803 -0.019900179213234181 0.035902745960353678
leaf_weight=60.84290961176157 19.875158425420523 35.394319213926792 33.802240967750549 7.69038102030754 12.747144587337969 49.316964201629162 12.798625133931635 99.014229081571102 13.089054949581621 22.701010316610336 33.656790845096111 21.794265061616898 28.160016432404518 13.852375775575636 16.276797041296959 24.71996270865202 15.810762614011763 12.50994451344013 7.2097871676087371 27.133229285478592 51.804183714091778 67.066548101603985 46.910219460725784 11.2078625485301 48.511055342853069 6.7511902675032642 15.232177175581453 30.355756789445877 10.930155239999296 12.924282617866991
leaf_count=1286 277 737 197 45 93 272 79 920 74 149 260 197 209 68 93 164 97 77 38 171 374 387 294 60 238 39 88 194 71 86
internal_value=-0.000920176 0.00296206 0.00550319 0.00701691 -0.000148847 0.0157983 0.00850248 -0.00830765 0.020064 -0.0046557 0.000726362 -0.00349622 0.00325544 0.0267465 0.0150833 0.00735226 0.0184227 0.0297986 0.0368247 0.0491365 -0.00602683 0.0171567 0.00636968 0.0373 0.042281 0.0351906 0.0103878 0.00628011 -0.00700798 0.0105618
internal_weight=870.089 809.246 773.852 753.977 425.536 328.441 206.309 219.227 271.937 56.5033 120.213 107.466 85.6712 175.71 141.707 87.1633 62.4433 54.5433 46.853 34.343 64.6028 80.1556 96.2272 95.5547 81.7023 70.4944 21.9834 46.6326 57.5112 23.8544
internal_count=7334 6048 5311 5034 3168 1866 1332 1836 1520 346 916 823 626 954 879 548 384 331 286 209 453 461 566 493 425 365 127 287 417 157
cat_boundaries=0 1 2 3 4 5 6 7 8
cat_threshold=20544 498 1387300932 684358989 1213398360 62623788 1 671613952
is_linear=0
shrinkage=0.05


Tree=23
num_leaves=31
num_cat=10
split_feature=20 73 33 4 17 11 42 1 42 11 17 22 7 7 62 33 29 14 25 28 38 74 28 1 63 34 34 33 7 6
split_gain=65.8763 43.3729 25.0127 23.3686 17.7143 12.5641 10.8651 9.14678 8.14089 8.4027 7.86004 6.19025 5.96559 7.03065 5.50759 6.86641 7.01297 5.48788 4.81306 6.19792 4.40868 4.37152 7.33302 4.30902 4.30069 4.198 4.06039 3.91052 9.37479 4.73131
threshold=1.0000000180025095e-35 1.0000000180025095e-35 14.450000000000001 0 1 2 3 5892.0000000000009 4 5 6 1.0000000180025095e-35 112.22000000000001 78.050000000000011 7 21.350000000000005 162.50000000000003 1.0000000180025095e-35 8 1715.0000000000002 595.50000000000011 16.500000000000004 932.50000000000011 5816.5000000000009 9 27.750000000000004 14.950000000000001 164.05000000000004 198.17500000000004 994.16500000000008
decision_type=2 2 2 1 9 1 9 2 9 1 9 2 2 2 1 2 2 2 1 2 2 2 2 2 1 2 2 2 2 2
left_child=-1 2 -2 8 5 7 14 25 10 11 -4 27 13 -12 15 -6 -17 21 20 23 -16 22 -13 -20 -18 -5 -7 -10 -29 -30
right_child=1 -3 3 4 6 26 -8 -9 9 -11 12 17 -14 -15 18 16 24 -19 19 -21 -22 -23 -24 -25 -26 -27 -28 28 29 -31
leaf_value=-0.051601196395129029 -0.049195634208861645 -0.051051353931464039 0.019574473218698107 -0.040457711081928374 -0.040321114565664923 1.5008046213659911e-06 0.017108634706086222 0.028023554779970719 -0.018989307635563776 -0.023635057040038085 -0.0050347268705055841 0.079434604518649379 -0.026288439182946929 0.054620503938064516 -0.010768845231799318 -0.031617750015358742 0.0064375316166915197 -0.014672017395015294 -0.011943739735669643 0.013635922441262608 0.03488496586951869 0.0037901712351377788 0.0065329395795416471 -0.041874654536714309 0.03195095841727616 -0.0021201809773093018 0.035795110708065313 -0.017071584860348148 0.056823411649494095 0.00066252181000612566
leaf_weight=58.200074657797813 19.344019029289484 34.429182875901461 47.342891402542591 10.982784025371076 6.4611356332898131 8.3755001723766309 99.200049839913845 16.434413276612759 44.401911556720734 66.560800492763519 23.206911198794845 6.7834806889295596 22.867548242211342 5.2286306470632544 12.481335371732714 8.2612332478165609 53.292288057506084 9.6622353270649892 24.478646650910378 10.488486237823961 7.772266946732997 10.550108440220354 6.5450907349586487 24.956386715173721 23.40726326406002 17.963825069367886 145.71867091953754 22.552229009568691 7.890200234949587 6.5276079550385475
leaf_count=1289 280 751 275 63 44 42 620 93 369 577 194 45 206 43 79 65 347 65 182 61 49 72 47 163 150 103 745 183 57 51
internal_value=-0.000696109 0.00304756 0.00553042 0.00700477 0.0136361 0.0247792 0.00478117 -0.000646113 -0.0044634 -0.0105589 0.00668448 -0.0015817 -0.00656637 0.00741742 -0.00294659 0.00523016 0.00973147 0.0160653 -0.0117763 -0.0202642 0.00756774 0.0285926 0.0465901 -0.0275845 0.0145348 -0.0175313 0.0318111 -0.0091544 0.00284658 0.0330889
internal_weight=862.367 804.167 769.738 750.394 470.274 199.475 270.799 45.381 280.12 181.474 98.646 114.913 51.3031 28.4355 171.599 91.4219 84.9608 33.5409 80.1771 59.9235 20.2536 23.8787 13.3286 49.435 76.6996 28.9466 154.094 81.3719 36.97 14.4178
internal_count=7310 6021 5270 4990 2806 1046 1760 259 2184 1466 718 889 443 237 1140 606 562 229 534 406 128 164 92 345 497 166 787 660 291 108
cat_boundaries=0 1 2 3 4 5 6 7 8 9 10
cat_threshold=1859 151616 1269334084 1493289935 186445064 808965219 4160 5 4 1
is_linear=0
shrinkage=0.05


Tree=24
num_leaves=31
num_cat=11
split_feature=20 73 33 17 37 42 11 7 33 11 59 38 11 11 28 38 69 4 59 33 74 34 34 6 32 7 76 3 69 7
split_gain=65.2606 43.0211 23.525 14.9469 16.5222 12.2322 11.7738 10.2137 10.0894 14.3819 7.33953 7.17678 11.2458 9.52297 7.51184 9.30735 6.88769 6.3784 7.68468 9.08759 5.99013 5.99112 5.68896 5.48775 8.15182 7.55227 6.6704 5.43569 5.06414 5.06149
threshold=1.0000000180025095e-35 1.0000000180025095e-35 14.450000000000001 0 1 2 3 5.9600000000000009 173.55000000000004 4 5 440.50000000000006 6 7 569.50000000000011 299.50000000000006 57.500000000000007 8 9 31.250000000000004 14.500000000000002 31.550000000000004 58.95000000000001 118.74000000000002 77.750000000000014 25.005000000000006 4.5000000000000009 10 159.50000000000003 169.58000000000004
decision_type=2 2 2 9 9 9 1 2 2 1 1 2 1 1 2 2 2 1 1 2 2 2 2 2 2 2 2 1 2 2
left_child=-1 2 -2 5 6 -4 -5 -6 9 17 -8 13 23 22 15 -15 -10 18 20 -20 21 -9 29 24 25 -13 -25 -12 -18 -7
right_child=1 -3 3 4 7 11 10 8 16 -11 27 12 -14 14 -16 -17 28 -19 19 -21 -22 -23 -24 26 -26 -27 -28 -29 -30 -31
leaf_value=-0.051440750918634551 -0.0485923835956713 -0.050876837889598861 -0.0089351649074161186 0.0022592270486304876 0.062625423235266722 0.030027899439481084 -0.038177444882194073 0.081339098303074397 0.06743173933023007 -0.011947114870218059 0.012382372300046207 0.059006199636686678 -0.007717743667585735 0.0055411335149629509 0.053442522521397112 0.056594156405443567 -0.0049689792709536129 -0.0034125779824472208 -0.0045956038775606441 0.050669305267762532 0.021946351476462927 0.017140127360040055 -0.026252544953783426 0.044018131253861684 -0.011383696151047408 0.0017579690815396195 0.0079261545736229542 -0.018394999052036964 0.05054897332167655 -0.0059697216740349328
leaf_weight=55.796027202159166 17.963492326438427 33.195203799754381 41.671289779245853 109.48100773990154 8.1528551802039129 21.023749843239784 44.522511921823025 11.559813991189005 10.143268413841726 74.237864471971989 14.857663854956627 10.447515718638899 48.215394914150238 26.239918276667595 49.634036645293236 12.73087667673826 10.991061367094519 35.978795573115349 30.277246855199337 8.8023878037929517 23.6090492233634 6.0213837623596183 10.224499844014643 39.172539912164211 23.378105781972408 11.724854677915571 19.541045635938644 28.296821549534798 5.4131702184677115 17.037447355687618
leaf_count=1295 273 758 264 801 53 115 390 64 67 585 86 55 284 152 250 71 89 276 175 59 140 42 67 208 124 61 107 272 45 96
internal_value=0.000361153 0.00401307 0.00643808 0.00781288 0.00133171 0.0155444 -0.00897599 0.0103541 0.00858725 0.00447189 -0.0216932 0.0192678 0.0123434 0.0282326 0.0364846 0.0232176 0.036882 0.0147322 0.0222962 0.00880603 0.0398677 0.0614574 0.00436828 0.0204007 0.00902958 0.0301154 0.0323399 -0.00911993 0.015203 0.0141739
internal_weight=860.341 804.545 771.35 753.386 422.345 331.041 197.158 225.187 217.034 190.487 87.677 289.37 152.479 136.891 88.6048 38.9708 26.5475 116.249 80.2699 39.0796 41.1902 17.5812 48.2857 104.264 45.5505 22.1724 58.7136 43.1545 16.4042 38.0612
internal_count=7324 6029 5271 4998 3144 1854 1549 1595 1542 1341 748 1590 839 751 473 223 201 756 480 234 246 106 278 555 240 116 315 358 134 211
cat_boundaries=0 1 2 3 4 5 6 7 8 9 10 11
cat_threshold=20544 24658351 2753609798 704889866 411229480 1 873552667 1158353960 570 1 4
is_linear=0
shrinkage=0.05


Tree=25
num_leaves=31
num_cat=11
split_feature=20 33 4 17 11 4 43 42 69 10 43 76 76 28 11 69 6 28 26 42 38 32 68 6 15 6 6 32 69 38
split_gain=60.7919 21.6892 16.2887 15.6503 12.9704 11.5211 9.45309 9.00673 8.70924 9.8107 8.69248 7.83311 7.95474 7.44801 6.85265 6.16038 5.74428 5.69812 5.5632 5.2011 5.43425 4.97453 4.72044 4.5184 5.23313 7.34972 5.48993 4.59628 4.33323 4.31147
threshold=1.0000000180025095e-35 14.450000000000001 0 1 2 3 4 5 65.500000000000014 6 7 2.5000000000000004 4.5000000000000009 722.50000000000011 8 145.50000000000003 451.55500000000006 1218.5000000000002 3.5000000000000004 9 386.50000000000006 88.750000000000014 1.0000000180025095e-35 17.895000000000003 10 68.215000000000018 9172.7500000000018 48.850000000000001 179.50000000000003 956.50000000000011
decision_type=2 2 1 9 1 1 1 9 2 1 1 2 2 2 1 2 2 2 8 9 2 2 2 2 1 2 2 2 2 2
left_child=-1 -2 6 7 29 19 22 21 9 11 -10 -7 -13 15 23 -12 -14 -15 -16 20 -6 -4 28 -9 25 -25 -27 -26 -3 -5
right_child=1 2 3 4 5 8 -8 14 10 -11 13 12 16 17 18 -17 -18 -19 -20 -21 -22 -23 -24 24 27 26 -28 -29 -30 -31
leaf_value=-0.051280275470969396 -0.048441105134793147 -0.023634585895867553 0.032668203681290253 -0.023479314408595856 0.049846718664835837 0.054197977901075695 0.022098963308464926 -0.051175017283803304 -0.018651005093260849 0.059015955097284939 0.02158093029604341 -0.024547226885944625 0.056160637138823778 0.071091817323939682 0.037698349461260924 -0.037553505184802091 -0.0084343524433559379 0.0047001654010855598 0.0055767268901367748 -0.023652071728622021 -0.011124803729688795 0.0081027608757428503 0.030705641758054042 0.056585120343469943 0.01186867401477839 -0.013854298891491815 0.03382607699972566 -0.031571598655051623 0.020489867506569726 0.025017687597161706
leaf_weight=53.197923079133034 18.665671527385712 26.06060653179884 52.860162883996964 114.03651994094253 5.4940056800842267 7.2672564685344687 159.23258247226477 5.2816277965903273 26.631894387304783 15.133912794291971 9.5477786324918323 15.384302865713837 6.5858552530407888 7.7644635029137117 14.116123892366884 6.5701955892145625 5.8816346600651741 5.3575895987451077 130.39291194081306 41.384416069835424 7.7013965547084808 34.742411226034164 5.9074791073799124 5.6141504347324362 7.1790070235729209 22.503585346043113 7.1258543133735648 27.384814508259296 6.1785995364189139 3.9876334629952899
leaf_count=1294 310 173 300 1153 44 53 921 41 251 107 78 113 43 61 80 60 46 44 819 406 76 217 41 36 53 149 46 200 43 49
internal_value=-2.74292e-05 0.00343199 0.00472827 0.000380016 -0.00803455 0.00144644 0.0167079 0.00802853 0.0107616 0.0266525 -0.0018562 0.0114583 -0.00118554 0.0148187 0.00219237 -0.00330977 0.0273239 0.0462371 0.00837633 -0.015433 0.00937796 0.0207817 -0.00570494 -0.00925832 -0.00671649 0.00699562 -0.00165723 -0.0175376 -0.0148162 -0.0199668
internal_weight=855.172 801.974 783.309 585.93 278.729 160.705 197.379 307.201 106.125 50.253 55.8719 35.119 27.8518 29.24 219.598 16.118 12.4675 13.1221 144.509 54.5798 13.1954 87.6026 38.1467 75.089 69.8074 35.2436 29.6294 34.5638 32.2392 118.024
internal_count=7307 6013 5703 4525 2584 1382 1178 1941 856 362 494 255 202 243 1424 138 89 105 899 526 120 517 257 525 484 231 195 253 216 1202
cat_boundaries=0 1 2 3 4 5 6 7 8 9 10 11
cat_threshold=48 20544 1694567335 1537 402711211 168569608 1 48922696 1098752300 99337 6
is_linear=0
shrinkage=0.05


Tree=26
num_leaves=31
num_cat=7
split_feature=20 73 33 4 65 41 43 32 76 38 18 28 62 32 7 7 6 74 74 75 74 14 29 43 18 33 29 32 7 32
split_gain=56.2281 38.1929 20.8262 16.2526 12.1111 10.6964 9.21524 13.5807 10.8827 8.90447 7.97034 13.8725 8.57086 8.24641 7.77569 7.63961 8.84338 7.55876 6.52284 8.42431 6.17757 8.1481 7.30137 5.68942 4.9794 5.23616 12.3258 6.65159 7.31863 6.02488
threshold=1.0000000180025095e-35 1.0000000180025095e-35 14.450000000000001 0 2.5000000000000004 1 2 48.850000000000001 4.5000000000000009 368.50000000000006 3 1491.5000000000002 4 90.550000000000011 8.1300000000000008 5.4850000000000012 8.6500000000000021 1.5000000000000002 18.500000000000004 1.5000000000000002 9.5000000000000018 1.0000000180025095e-35 243.50000000000003 5 6 183.05000000000004 403.50000000000006 116.25000000000001 104.90500000000002 105.55000000000001
decision_type=2 2 2 1 8 1 1 2 2 2 9 2 1 2 2 2 2 2 2 2 2 2 2 1 9 2 2 2 2 2
left_child=-1 2 -2 6 -5 10 14 8 9 -8 12 -12 13 18 -4 -7 -17 -18 19 -6 21 22 -19 -9 -22 27 -27 29 -29 -26
right_child=1 -3 3 4 5 15 7 23 -10 -11 11 -13 -14 -15 -16 16 17 20 -20 -21 24 -23 -24 -25 25 26 -28 28 -30 -31
leaf_value=-0.051109285835411244 -0.047973095915025438 -0.050643347888558281 0.034804752155643638 -0.052109441021181507 -0.015655494893547027 0.05682224030221418 0.0085890231201489042 -0.014407594709747854 -0.016322998030970114 0.081707527888123035 0.0041530971783489681 0.060825477386696171 -0.023138604264849122 -0.017523370361716025 -0.026193889834449254 -0.032274032625358433 0.060015380681251708 0.058499915528645412 -0.017388253334052181 0.051293334210432619 -0.0070605224371347976 -0.014999178014247203 0.0048750786832648775 0.0070139483555784676 0.023744975671983911 0.029053496365533768 -0.016479905785280122 0.0212115207946698 -0.037352972590804875 0.051661544874529508
leaf_weight=49.971939228475094 16.977326571941376 30.834633380174637 4.8152209892868987 6.54095758497715 5.752435199916369 10.689614504575728 6.8305726125836435 56.905553117394447 6.8596226647496215 10.807006917893885 69.072726458311081 11.839093632996081 41.571575850248337 20.888250753283501 65.560506742447615 8.5686674267053586 8.9135030135512334 7.8353278189897564 7.2095210663974276 17.681596450507641 18.209531366825104 34.433155380189419 23.300260990858078 49.561698079109192 164.28572605550289 29.829542562365532 27.788822188973427 12.073089092969896 8.0183714628219587 22.115358263254166
leaf_count=1274 278 739 35 51 43 59 46 441 50 75 415 58 333 158 551 53 53 45 54 131 137 210 137 367 938 169 161 69 49 128
internal_value=-0.000179012 0.003039 0.00523753 0.00649103 0.0107773 0.0118139 -0.0056088 0.00246616 0.0354425 0.0553708 0.00098237 0.0116629 -0.00855121 0.00521692 -0.0189378 0.0163504 0.0154607 0.0166941 0.0224305 0.034891 0.0154153 0.00156024 0.0197703 -0.00515114 0.0186162 0.0199214 0.00718664 0.0243831 -0.00282403 0.0273151
internal_weight=855.741 805.769 774.935 757.957 556.617 550.076 201.34 130.964 24.4972 17.6376 174.015 80.9118 93.1034 51.5318 70.3757 376.061 365.371 356.803 30.6436 23.434 347.889 65.5687 31.1356 106.467 282.32 264.111 57.6184 206.493 20.0915 186.401
internal_count=7307 6033 5294 5016 3451 3400 1565 979 171 121 1192 473 719 386 586 2208 2149 2096 228 174 2043 392 182 808 1651 1514 330 1184 118 1066
cat_boundaries=0 1 2 3 4 5 6 7
cat_threshold=1601 1191289069 497953958 155653 5 38867465 131332
is_linear=0
shrinkage=0.05


Tree=27
num_leaves=31
num_cat=8
split_feature=20 73 0 65 30 42 66 11 34 11 34 32 4 59 0 32 75 69 75 4 34 29 33 75 7 33 69 69 69 33
split_gain=54.342 39.1764 22.1101 13.3805 12.8385 10.7567 9.673 8.13947 8.02022 7.43631 7.45846 13.028 7.3172 6.95904 6.70428 6.62804 12.3135 7.76927 7.10458 8.06186 7.09566 7.84431 6.61809 6.58731 6.16544 6.18408 6.65829 5.54357 5.51506 5.35248
threshold=1.0000000180025095e-35 1.0000000180025095e-35 0 2.5000000000000004 306.50000000000006 1 1.0000000180025095e-35 2 66.050000000000011 3 30.950000000000003 84.250000000000014 4 5 6 51.850000000000001 2.5000000000000004 55.500000000000007 5.5000000000000009 7 62.050000000000004 119.50000000000001 146.25000000000003 4.5000000000000009 215.95000000000002 20.150000000000002 216.50000000000003 40.500000000000007 32.500000000000007 25.750000000000004
decision_type=2 2 1 8 2 9 2 1 2 1 2 2 1 1 1 2 2 2 2 1 2 2 2 2 2 2 2 2 2 2
left_child=-1 2 4 -4 22 6 7 8 14 24 11 29 -6 -8 -5 16 -9 -18 19 23 21 -21 -2 -17 25 -7 28 -24 -27 -11
right_child=1 -3 3 5 12 9 13 15 -10 10 -12 -13 -14 -15 -16 18 17 -19 -20 20 -22 -23 27 -25 -26 26 -28 -29 -30 -31
leaf_value=-0.050947885350960002 -0.043536419170001964 -0.050543958351951981 -0.052664241349891755 0.0081991098916654789 -0.013064151120113669 -0.012469873436100702 0.0028407846838185945 -0.0052987800016116131 -0.040467595520896849 0.010123178824840704 -0.0051523312087699905 -0.0080571008783982094 0.024021506199290665 0.068421172552956891 -0.017532730584186036 -0.013980681293065348 0.074348132008217688 0.018814596279572424 -0.022260851881284707 0.056642813333211042 0.061285480406257843 0.0069225617853980173 0.02890898286516267 0.026171969113111815 0.0089496119084893078 0.051533355128834002 0.071887578023491397 -0.022466832490548354 0.023232399402531339 0.052366326557616472
leaf_weight=47.264533504843712 36.641657136380672 31.007199373096228 7.6483593843877316 47.251749895513058 17.610600419342518 7.932145580649375 7.1554136127233505 20.585891537368298 17.480066381394863 11.842665251344441 68.703148607164621 25.609008096158504 16.046626295894384 8.5841968357563001 35.02042443677783 58.015833463519812 11.792184650897982 14.236273914575575 23.856038361787796 7.9803338423371306 7.3713690489530554 71.911804232746363 5.9256710931658771 11.397803276777266 52.764614589512348 20.913376495242119 8.9794566780328733 21.446672312915325 106.48784500360489 22.518304944038391
leaf_count=1263 466 778 63 314 119 57 45 129 146 80 483 156 101 51 265 399 70 98 158 45 48 411 48 80 323 112 62 186 637 124
internal_value=0.000586508 0.00367282 0.00590806 0.00908825 -0.0153394 0.0100083 0.00338685 0.00158217 -0.00972527 0.0163376 0.00564211 0.0188156 0.00796161 0.0405583 -0.00395392 0.00670126 0.0235929 0.0457939 0.00260298 0.00650598 0.0155343 0.0125279 -0.0298839 -0.00622539 0.0226534 0.0291267 0.0316192 -0.0107179 0.0282433 0.038505
internal_weight=851.981 804.717 773.71 676.038 97.6712 668.39 342.639 326.9 99.7522 325.751 128.673 59.97 33.6572 15.7396 82.2722 227.148 46.6144 26.0285 180.533 156.677 87.2635 79.8921 64.014 69.4136 197.077 144.313 136.381 27.3723 127.401 34.361
internal_count=7317 6054 5276 4356 920 4293 2259 2163 725 2034 843 360 220 96 579 1438 297 168 1141 983 504 456 700 479 1191 868 811 234 749 204
cat_boundaries=0 1 2 3 4 5 6 7 8
cat_threshold=16 2101381838 286256548 1750945072 1544 2 44 1801
is_linear=0
shrinkage=0.05


Tree=28
num_leaves=31
num_cat=8
split_feature=17 73 33 65 17 4 43 6 74 38 6 34 29 0 30 74 2 33 74 33 38 75 34 30 41 38 33 13 7 7
split_gain=43.8733 34.4075 17.2772 13.3328 10.7825 9.13122 7.8679 6.97506 7.5695 9.15978 6.28672 6.03957 7.0673 5.43665 8.34491 5.33349 7.7199 6.35354 9.6714 8.19018 6.05701 5.84741 9.43372 9.41895 8.40929 9.00387 7.42455 7.65774 7.38546 6.55872
threshold=0 1.0000000180025095e-35 14.450000000000001 2.5000000000000004 1 2 3 10.455000000000002 9.5000000000000018 619.50000000000011 42.845000000000006 67.350000000000009 388.50000000000006 4 462.50000000000006 20.500000000000004 5 155.45000000000002 15.500000000000002 132.85000000000005 956.50000000000011 2.5000000000000004 18.850000000000005 866.50000000000011 6 424.50000000000006 24.750000000000004 7 30.805000000000003 245.96000000000001
decision_type=9 2 2 8 9 1 1 2 2 2 2 2 2 1 2 2 9 2 2 2 2 2 2 2 1 2 2 1 2 2
left_child=1 2 -1 -4 -5 11 7 -7 9 -9 -8 13 -13 14 -6 16 17 19 -19 -15 21 23 28 -18 25 -24 -26 -28 -23 -30
right_child=-2 -3 3 4 5 6 10 8 -10 -11 -12 12 -14 15 -16 -17 20 18 -20 -21 -22 22 24 -25 26 -27 27 -29 29 -31
leaf_value=-0.046684698800899545 -0.029464544260530547 -0.050189330145494086 -0.053059115502027791 0.032408545841508173 -0.020422582718213775 0.052482461460158537 -0.047732904107438703 0.043644802234576882 -0.0044696914962632454 -0.019135780385606777 -0.0093073873975403343 0.015184957394077131 -0.024579802547985502 -0.0011376316038928277 0.029917655873461999 0.029705656895756324 -0.00088730436140517825 0.045692027495208828 -0.024555366477402203 -0.046565848128836879 0.057520823342241525 -0.029488227474078504 -0.029683024945869236 0.037782174306176974 -0.0087598275981356482 0.026187100170974961 0.08505572594518436 0.038035425473840569 0.033384311066022257 -0.017655988406899928
leaf_weight=14.089612074196337 100.54376570135355 27.023096460849047 8.0174350365996343 33.389367826282978 29.104062210768461 6.5327690243720999 11.802340947091578 18.85057390481234 86.29011606797576 7.5401328057050696 68.25809346139431 19.002027057111263 24.483444757759571 55.57616364210844 10.364874906837938 47.666419491171837 86.614041686058044 13.329497031867506 6.6682377308607093 11.091963432729242 7.8712064474821082 12.37842735648155 13.106481350958349 18.234823808073997 6.2014164999127379 13.754693746566771 10.782159008085728 52.43400677293539 17.109170190989975 8.8700234070420247
